feature_extraction_block/feature_extraction_w =
[0.06155173107981682, -0.05923376604914665, -0.3720724284648895, -0.11110685765743256, -0.12568895518779755, 0.30454137921333313, -0.19292214512825012, -0.046406231820583344, 0.026234744116663933, 0.29711267352104187, 0.2677653431892395, 0.08574371039867401, -0.05710858106613159, -0.05734634026885033, 0.1226409450173378, 0.05863890424370766, -0.3782500922679901, -0.18250243365764618, -0.3980277478694916, 0.1032252386212349, 0.026836302131414413, -0.010116483084857464, 0.007422585040330887, 0.12005028873682022, -0.20524270832538605, 0.2428392916917801, -0.4227377772331238, -0.0037299003452062607, -0.04955482855439186, 0.035000450909137726, -0.0668393075466156, 0.0659400001168251, 0.1355336606502533, 0.15058894455432892, -0.044212475419044495, 0.06077887490391731, -0.03760780766606331, 0.2695801258087158, -0.01791425049304962, -0.23156553506851196, -0.005280322395265102, 0.12041614949703217, -0.30094778537750244, 0.30058303475379944, 0.10169011354446411, 0.07141092419624329, 0.4043155312538147, 0.0364382266998291, -0.23567081987857819, -0.46027350425720215, 0.01585027202963829, 0.1429329365491867, 0.33064261078834534, -0.16735827922821045, -0.1027841866016388, -0.20104047656059265
  , 0.08063477277755737, -0.09843273460865021, 0.043338749557733536, 0.2626704275608063, 0.2043612003326416, 0.010189387015998363, 0.17752985656261444, 0.19166800379753113, -0.0700366348028183, 0.19514483213424683, -0.29838529229164124, -0.22536902129650116, -0.12165092676877975, 0.12978143990039825, 0.11181585490703583, -0.07293864339590073, 0.2164328545331955, -0.11410858482122421, 0.34743982553482056, -0.15315859019756317, 0.056747592985630035, -0.15326228737831116, -0.20714496076107025, -0.03969284147024155, -0.1282598376274109, -0.25802743434906006, -0.009476774372160435, 0.29449665546417236, -0.008538740687072277, -0.19406156241893768, -0.16795195639133453, 0.26510345935821533, -0.45291945338249207, -0.09077861905097961, -0.15249501168727875, -0.16045325994491577, -0.2255423367023468, 0.052427660673856735, 0.006852994207292795, -0.09891325980424881, -0.19416815042495728, 0.01320179458707571, -0.16283485293388367, -0.10276401042938232, -0.09016204625368118, 0.4410424828529358, -0.07359867542982101, 0.1765197515487671, -0.1713293492794037, -0.15324974060058594, 0.19780336320400238, -0.1781461089849472, -0.029135219752788544, -0.20170234143733978, 0.08187941461801529, -0.01800602301955223
  , 0.052356965839862823, 0.1948406845331192, 0.2730461061000824, 0.028269639238715172, 0.02659275010228157, -0.1673690229654312, -0.35358989238739014, 0.1791716068983078, -0.16219638288021088, -0.19573593139648438, 0.14484481513500214, -0.014896711334586143, -0.09197908639907837, 0.19099387526512146, -0.31496095657348633, 0.14237044751644135, 0.457774817943573, 0.3156110346317291, 0.03642069175839424, 0.2390059530735016, 0.17814745008945465, 0.1771525889635086, 0.07102186977863312, 0.30022186040878296, -0.09359198808670044, -0.0877862349152565, -0.3814898729324341, 0.022816823795437813, 0.2349703013896942, -0.05717288702726364, 0.3491070568561554, 0.06207745522260666, -0.35339871048927307, 0.12550413608551025, -0.17075538635253906, -0.13381460309028625, 0.21158599853515625, 0.11057741940021515, 0.057938575744628906, 0.12270832061767578, -0.041246481239795685, 0.17942336201667786, -0.0413232296705246, -0.06761924177408218, -0.18831637501716614, 0.26319047808647156, 0.03542189672589302, -0.06999628990888596, -0.08755333721637726, 0.06639586389064789, -0.08206096291542053, -0.13680261373519897, 0.22520364820957184, 0.26406094431877136, -0.17249062657356262, -0.05793824419379234
  , -0.1410631239414215, -0.27585944533348083, 0.04013366997241974, 0.21422573924064636, 0.29053905606269836, -0.15957950055599213, 0.1739099621772766, 0.06736014783382416, 0.09525388479232788, 0.19769614934921265, -0.266165167093277, 0.33717694878578186, -0.1472581923007965, -0.13684587180614471, 0.10054871439933777, -0.34313279390335083, -0.14364410936832428, -0.1126113086938858, -0.09972698241472244, 0.16148298978805542, 0.27693426609039307, 0.07309802621603012, -0.2240070402622223, -0.10383748263120651, 0.06664414703845978, 0.04407598450779915, 0.2580757737159729, 0.0654309093952179, -0.3598306477069855, -0.0852063000202179, 0.1366429179906845, 0.14491842687129974, -0.3538004159927368, 0.027456289157271385, -0.2030561864376068, -0.03988451510667801, -0.16100125014781952, -0.22156767547130585, 0.2534921169281006, 0.013112724758684635, -0.12890203297138214, -0.34561803936958313, 0.08088645339012146, 0.18851663172245026, 0.1483721286058426, -0.07610153406858444, -0.25257864594459534, 0.03008580207824707, -0.11944440007209778, -0.4355865716934204, 0.052343301475048065, -0.1889893263578415, -0.2514377236366272, -0.010546245612204075, -0.11338550597429276, 0.05489220842719078
  , 0.03796186298131943, 0.1406693011522293, -0.04758404567837715, -0.09589098393917084, -0.07983680814504623, 0.14441250264644623, 0.17905433475971222, -0.36339816451072693, -0.16411776840686798, -0.07374584674835205, 0.14719578623771667, 0.2775101363658905, 0.4257197976112366, 0.2452157735824585, -0.12135207653045654, -0.14390809834003448, 0.0004281721485313028, 0.3916340172290802, 0.18675480782985687, -0.06032028794288635, 0.12998051941394806, 0.10672499984502792, 0.14453816413879395, 0.07115938514471054, 0.09472136944532394, 0.009270274080336094, -0.1406092345714569, -0.0757802426815033, -0.08431178331375122, -0.12131190299987793, -0.1132022887468338, 0.08567775785923004, -0.2595147490501404, 0.1054476723074913, 0.03872595354914665, 0.04388732090592384, 0.1299440860748291, 0.05560789629817009, 0.05880147963762283, 0.2304992824792862, 0.08272048830986023, -0.007272008340805769, -0.17119470238685608, -0.13080145418643951, -0.10402071475982666, 0.22868871688842773, 0.23660501837730408, 0.238021582365036, -0.22168733179569244, 0.12416454404592514, -0.373917818069458, -0.37195032835006714, 0.18584898114204407, -0.24658770859241486, 0.014466342516243458, 0.25491994619369507
  , -0.04136139899492264, 0.12761840224266052, -0.06721184402704239, 0.3549826145172119, 0.19358320534229279, -0.27865055203437805, 0.19801704585552216, -0.012165064923465252, 0.1880275011062622, -0.040661778301000595, -0.22411981225013733, -0.16880404949188232, -0.22365786135196686, -0.43274354934692383, 0.026971304789185524, 0.08463218063116074, -0.1032949909567833, 0.10725049674510956, 0.0504939928650856, 0.09270443022251129, -0.10337360948324203, 0.14865484833717346, -0.3010569214820862, 0.030796129256486893, 0.14440937340259552, -0.1949481964111328, -0.11596035212278366, 0.14848434925079346, -0.02325919084250927, -0.12666568160057068, 0.03436879813671112, 0.10381923615932465, -0.052243199199438095, -0.15307164192199707, -0.2575262188911438, -0.03502139449119568, 0.06631273776292801, 0.29385337233543396, 0.11930052191019058, 0.41962674260139465, 0.09596947580575943, -0.03651943802833557, -0.2809191048145294, -0.07053421437740326, 0.21867161989212036, -0.3022691011428833, 0.018064329400658607, -0.12686574459075928, 0.40618976950645447, -0.31803086400032043, -0.16975802183151245, 0.02987132966518402, 0.18620845675468445, 0.4423133134841919, -0.03889192268252373, -0.010020625777542591
  , -0.07615729421377182, -0.17790187895298004, -0.2936539649963379, -0.18050608038902283, -0.2549241781234741, -0.21752886474132538, 0.16836491227149963, -0.024683481082320213, 0.07766439765691757, -0.09915629029273987, 0.37500983476638794, 0.08859215676784515, 0.053510867059230804, 0.09550449252128601, 0.21952182054519653, 0.42391902208328247, -0.3016393482685089, 0.23271198570728302, 0.16123245656490326, -0.5308842062950134, -0.2630484998226166, -0.056669168174266815, -0.15079274773597717, -0.08094661682844162, -0.32347315549850464, -0.2987922430038452, 0.03868682682514191, 0.02087141014635563, 0.2365577220916748, 0.22059793770313263, 0.197132870554924, 0.2702169716358185, 0.11327245086431503, -0.084543876349926, -0.1383865922689438, 0.11174871027469635, -0.12909826636314392, 0.01870676688849926, -0.31795212626457214, -0.004435630515217781, -0.2164049744606018, 0.3049139380455017, -0.20440146327018738, 0.14789943397045135, -0.07207834720611572, -0.06415950506925583, 0.002285282127559185, -0.08767940104007721, -0.2493048906326294, -0.061620309948921204, 0.014538807794451714, -0.13274668157100677, -0.032796669751405716, 0.33674025535583496, 0.2658785283565521, -0.11313260346651077
  , -1.0470155477523804, -0.1213398203253746, -0.11473394185304642, 0.16671369969844818, -0.0025552259758114815, -0.26617270708084106, 0.16341231763362885, -0.16592511534690857, 0.15320132672786713, 0.09443733841180801, 0.2928054928779602, 0.07411585003137589, -0.11793661117553711, 0.02616846188902855, 0.08277181535959244, 0.21307548880577087, 0.12376316636800766, -0.1804918497800827, -0.03398515656590462, -0.04199120029807091, -0.16402503848075867, 0.3214324414730072, 0.09055255353450775, 0.08475901931524277, 0.13144353032112122, 0.3951394557952881, -0.04277513921260834, 0.3629454970359802, -0.05020714923739433, -0.24021147191524506, -0.21135255694389343, 0.13456790149211884, 0.09257035702466965, -0.17085151374340057, 0.42388227581977844, 0.3254348039627075, -0.5153891444206238, 0.03774428740143776, -0.2056155800819397, -0.0049770488403737545, 0.38848379254341125, 0.2029903531074524, -0.17665591835975647, 0.0721723735332489, -0.08528774231672287, 0.1848691999912262, -0.03193835914134979, 0.09650560468435287, 0.11587998270988464, 0.01766570657491684, 0.018418440595269203, 0.10279566794633865, -0.0411849245429039, -0.15690873563289642, -0.08016590774059296, 0.09952437877655029
  , -0.3104532063007355, -0.27475619316101074, 0.2414160817861557, 0.31278467178344727, 0.14465785026550293, 0.2818711996078491, -0.08023638278245926, 0.03495236113667488, 0.1929330676794052, -0.13358180224895477, -0.25771602988243103, 0.1323140561580658, 0.15644048154354095, 0.21755239367485046, -0.038169823586940765, 0.34177765250205994, 0.20725496113300323, 0.05296885594725609, 0.25167858600616455, -0.41473111510276794, -0.21878598630428314, -0.12701381742954254, -0.06309422105550766, -0.3910982310771942, -0.0815892368555069, 0.31504514813423157, -0.055164679884910583, 0.15897132456302643, 0.10378492623567581, -0.2365020215511322, 0.32374387979507446, -0.30365005135536194, -0.032862916588783264, 0.0796903669834137, 0.29915711283683777, -0.21204660832881927, -0.3227764666080475, -0.14878717064857483, -0.1013815850019455, 0.07912237197160721, -0.08450696617364883, 0.18936507403850555, -0.0884738489985466, -0.31373751163482666, -0.28007790446281433, -0.126944899559021, 0.22111524641513824, -0.04525226727128029, 0.0643153116106987, 0.1268310546875, -0.3089490532875061, 0.33786532282829285, 0.004156571347266436, -0.051845792680978775, -0.16791103780269623, 0.23900079727172852
  , -0.015620830468833447, 0.34331515431404114, -0.10628963261842728, -0.26899057626724243, 0.04666300490498543, 0.3284328877925873, -0.009794960729777813, 0.3593469262123108, -0.033544182777404785, 0.21080544590950012, 0.04581543803215027, 0.133238285779953, 0.2624806761741638, 0.05853902921080589, 0.14533011615276337, 0.26078927516937256, -0.08254395425319672, 0.3382936418056488, -0.010040028020739555, -0.006515816319733858, -0.32999786734580994, 0.08719430863857269, -0.06081743538379669, -0.16840845346450806, -0.13889819383621216, 0.0980127826333046, 0.31647998094558716, -0.07565446197986603, 0.23582446575164795, -0.24926960468292236, -0.1443697065114975, 0.24671870470046997, -0.10016155987977982, -0.038107648491859436, -0.023054048418998718, 0.015001704916357994, -0.1437118798494339, -0.011214736849069595, 0.45428648591041565, 0.101136714220047, 0.00834849663078785, -0.10727466642856598, -0.12689034640789032, 0.11048558354377747, 0.3965202569961548, 0.10164398699998856, 0.23362086713314056, 0.41224461793899536, 0.18855737149715424, 0.18719662725925446, 0.22380101680755615, -0.1501479297876358, -0.12987524271011353, 0.0302283875644207, 0.21357184648513794, -0.15026889741420746
  , 0.04921560361981392, -0.020486529916524887, -0.3143039643764496, -0.21462580561637878, -0.1173517256975174, 0.4414329528808594, 0.16230204701423645, 0.13182120025157928, 0.2133987694978714, 0.1897936314344406, -0.3713940382003784, -0.1878058910369873, 0.4084453880786896, 0.32322993874549866, 0.3441725969314575, 0.022793879732489586, -0.06156451255083084, -0.3071419894695282, -0.13801610469818115, -0.22530892491340637, 0.18770262598991394, -0.32982194423675537, -0.1067182868719101, 0.29359838366508484, 0.04178527742624283, -0.2906164228916168, -0.1729481965303421, -0.2299482226371765, 0.10283537209033966, 0.326496958732605, -0.02217891626060009, -0.17706598341464996, -0.011598167940974236, -0.031323280185461044, 0.08177487552165985, 0.16847388446331024, -0.29853275418281555, 0.36403506994247437, -0.02585345320403576, 0.2619461119174957, 0.2204512655735016, 0.2264820635318756, 0.08976379036903381, -0.3000810742378235, 0.15627257525920868, -0.12440366297960281, 0.045629970729351044, 0.22905181348323822, -0.4442938268184662, 0.06202569976449013, 0.10715168714523315, -0.17667005956172943, 0.12257574498653412, -0.23509953916072845, 0.2623888850212097, -0.10042523592710495
  , 0.010043683461844921, -0.07748439908027649, -0.24907103180885315, -0.002360439859330654, -0.14350785315036774, 0.14514046907424927, 0.0111117297783494, 0.23816603422164917, -0.384828120470047, -0.17141306400299072, -0.10757386684417725, 0.14000274240970612, -0.12632618844509125, -0.37357771396636963, -0.4116044044494629, 0.34749388694763184, -0.1901542991399765, 0.25774651765823364, 0.19802910089492798, -0.13336621224880219, 0.17235082387924194, -0.013028129003942013, -0.030601875856518745, 0.2646615505218506, 0.35301530361175537, 0.5180586576461792, 0.13244478404521942, 0.28289347887039185, -0.11813637614250183, 0.02660604938864708, -0.5071008801460266, -0.303419291973114, -0.3061980903148651, 0.5150930881500244, 0.23807871341705322, -0.025568535551428795, -0.13234269618988037, 0.157654270529747, 0.2296784520149231, 0.08374953269958496, -0.22648203372955322, 0.14515401422977448, 0.22288277745246887, -0.2680036723613739, -0.022640464827418327, -0.040064211934804916, -0.04847585782408714, 0.28097471594810486, -0.2785140872001648, -0.13498292863368988, 0.1776381880044937, 0.045272912830114365, 0.38349205255508423, -0.32824450731277466, 0.13269564509391785, 0.053115058690309525
  , 0.5467621684074402, -0.03934160992503166, 0.1217956691980362, 0.2377186417579651, -0.43096646666526794, -0.10811854153871536, 0.33880460262298584, -0.3154963254928589, 0.320529967546463, 0.5227915644645691, -0.39460518956184387, 0.14912179112434387, 0.29988572001457214, 0.2757716774940491, 0.14192230999469757, 0.11705844104290009, 0.5007106065750122, 0.021121874451637268, 0.030114516615867615, 0.01486764382570982, 0.5294069051742554, -0.036787621676921844, 0.11065066605806351, 0.4880499541759491, 0.18595139682292938, 0.11871211230754852, -0.4352603256702423, 0.08220791816711426, 0.15689510107040405, 0.4032452404499054, 0.036244411021471024, -0.13511957228183746, -0.02323339879512787, 0.1023125872015953, 0.3455789387226105, -0.2942160964012146, 0.18013408780097961, -0.5532559752464294, 0.7017441987991333, -0.20297303795814514, -0.09701991081237793, 0.3161838948726654, 0.02216736599802971, 0.29018691182136536, 0.5353844165802002, -0.33282238245010376, 0.18052227795124054, -0.4073948264122009, 0.02814316563308239, -0.2844031751155853, 0.31218498945236206, -0.14166995882987976, 0.5245693922042847, -0.246212899684906, 0.0027518938295543194, 0.14177073538303375
  , -0.14580491185188293, -0.42758744955062866, -0.2936196029186249, -0.2755162715911865, -0.1314379721879959, 0.3650045096874237, -0.11204170435667038, 0.11817023903131485, 0.0071610515005886555, -0.3491438031196594, -0.17591522634029388, 0.5114445090293884, 0.05074367672204971, 0.2799929678440094, -0.024416202679276466, -0.2033078968524933, 0.16541194915771484, 0.3365374207496643, -0.052537016570568085, 0.09231633692979813, -0.05957935377955437, 0.37136632204055786, -0.005205393768846989, 0.09447622299194336, -0.062048204243183136, 0.23962236940860748, -0.2502244710922241, 0.0108183017000556, -0.1177036389708519, 0.39697369933128357, -0.062012918293476105, 0.4999002516269684, -0.10974254459142685, 0.11979001015424728, -0.024520155042409897, 0.21242393553256989, -0.1652507781982422, -0.2800261080265045, 0.14046220481395721, 0.3757763206958771, 0.16759495437145233, 0.23485559225082397, 0.3277631103992462, 0.38332173228263855, 0.04650818929076195, 0.26696598529815674, -0.18914824724197388, -0.29821303486824036, 0.4036964476108551, 0.12652923166751862, -0.12474830448627472, 0.0328863151371479, -0.47874730825424194, 0.2398107349872589, 0.3591143488883972, -0.16973569989204407
  , -0.1240885779261589, 0.3773230016231537, -0.025110013782978058, 0.016293616965413094, -0.28850558400154114, 0.19052080810070038, 0.18377704918384552, 0.14077042043209076, -0.09891875833272934, 0.14737454056739807, 0.040768496692180634, -0.31172794103622437, 0.20570343732833862, -0.15211805701255798, 0.2334446907043457, -0.29110243916511536, -0.04452158510684967, 0.18422533571720123, -0.39658308029174805, 0.145852729678154, 0.2115054875612259, 0.2547643780708313, -0.17827120423316956, 0.033055514097213745, 0.30494406819343567, -0.1915207803249359, -0.2624260187149048, -0.04024055227637291, 0.18020398914813995, 0.040962621569633484, 0.14167030155658722, 0.25520169734954834, 0.15015016496181488, 0.2621704936027527, 0.04776123911142349, -0.07836697995662689, -0.09049610793590546, 0.23403890430927277, -0.10603371262550354, -0.12893828749656677, 0.03425171971321106, 0.15393021702766418, -0.2924801707267761, -0.3576917350292206, 0.062132515013217926, -0.13812361657619476, 0.061144694685935974, 0.28507304191589355, 0.3876172602176666, 0.2453763484954834, 0.09002197533845901, -0.14309577643871307, 0.3160151243209839, 0.12080185115337372, 0.11752478778362274, 0.26067766547203064
  , -0.02660873904824257, -0.04337631165981293, -0.1842493861913681, 0.1166916936635971, -0.13960006833076477, -0.1527857482433319, -0.18768909573554993, 0.07194600254297256, -0.009756742045283318, -0.22293546795845032, -0.41926929354667664, 0.25259971618652344, -0.13987696170806885, -0.12943637371063232, 0.304103821516037, -0.32305362820625305, 0.08901436626911163, -0.11796829104423523, -0.10050477087497711, -0.0014535151422023773, -0.06114102154970169, -0.07368125021457672, -0.1520034223794937, -0.09509358555078506, 0.05909755080938339, -0.16200768947601318, 0.288081556558609, -0.22916971147060394, 0.2207299768924713, 0.019807923585176468, -0.20950135588645935, 0.39113548398017883, -0.03880329430103302, 0.1210942342877388, -0.026660047471523285, -0.02335507608950138, 0.07669496536254883, 0.222552090883255, 0.08105649054050446, 0.00044934957986697555, -0.11305823922157288, -0.26089128851890564, -0.2692490220069885, -0.14277319610118866, 0.3447326123714447, -0.1614188402891159, 0.0032481008674949408, 0.0049531953409314156, 0.02857895940542221, -0.13887032866477966, 0.12676846981048584, -0.359826922416687, -0.20394687354564667, -0.05925425887107849, 0.29041552543640137, -0.19988004863262177
  , 0.11034518480300903, 0.2033723145723343, 0.0975751280784607, -0.019493022933602333, 0.25179925560951233, 0.2278100699186325, -0.00927793700248003, 0.1891816407442093, 0.42062991857528687, -0.3131466805934906, -0.04384009167551994, 0.10914944112300873, 0.35868385434150696, 0.10059060901403427, -0.03480469435453415, 0.21056537330150604, 0.3637007176876068, -0.19876854121685028, 0.19676850736141205, 0.2808171212673187, -0.2895280718803406, 0.051080796867609024, -0.4179863929748535, -0.15059766173362732, -0.18026037514209747, 0.1402595341205597, -0.141550675034523, -0.25937843322753906, 0.013610977679491043, 0.1558106243610382, -0.23729906976222992, -0.24382252991199493, -0.10771948099136353, 0.24037757515907288, 0.30036675930023193, 0.03803931176662445, 0.29036274552345276, 0.018104173243045807, -0.14459046721458435, -0.08934272080659866, -0.2193664163351059, -0.20072586834430695, -0.16321931779384613, 0.08793794363737106, -0.007909968495368958, -0.019971881061792374, -0.1986222118139267, -0.1707846075296402, 0.18184508383274078, -0.054558612406253815, 0.20746465027332306, 0.13254298269748688, 0.13712278008460999, 0.3363209068775177, -0.46095407009124756, -0.029446851462125778
  , 0.18905100226402283, -0.03654365986585617, 0.1986197680234909, -0.41432642936706543, -0.06595054268836975, -0.03637944906949997, 0.18215155601501465, 0.1865096092224121, -0.055607303977012634, -0.3807445466518402, -0.3649495542049408, -0.14286364614963531, 0.11043159663677216, -0.1881551742553711, -0.23385125398635864, 0.010986393317580223, 0.39704659581184387, 0.01804582215845585, -0.17998869717121124, 0.5837464928627014, 0.22743402421474457, -0.3622077703475952, 0.07424423098564148, 0.04875137656927109, 0.4197328984737396, 0.2666069269180298, -0.019963329657912254, 0.1962723582983017, 0.4002492129802704, 0.028689319267868996, 0.24125878512859344, 0.14474129676818848, 0.057703375816345215, -0.12945453822612762, -0.07520018517971039, 0.22579121589660645, -0.20159919559955597, 0.3568328320980072, -0.1377595067024231, -0.09036951512098312, 0.34545961022377014, -0.3072810471057892, -0.014898215420544147, -0.15250347554683685, 0.24237264692783356, 0.03437582775950432, -0.10139833390712738, -0.09956923127174377, 0.19582746922969818, -0.03926093503832817, -0.398508757352829, 0.06545434892177582, -0.08274918794631958, 0.43811774253845215, -0.31860554218292236, 0.16695989668369293
  , -0.18777163326740265, -0.038346756249666214, -0.06376047432422638, -0.5186497569084167, -0.09041308611631393, -0.31994619965553284, -0.2371658831834793, -0.046434275805950165, -0.14439657330513, -0.062135446816682816, -0.12265707552433014, -0.23297905921936035, 0.02258315496146679, 0.16362154483795166, 0.13030406832695007, 0.08299810439348221, -0.020818734541535378, 0.23977339267730713, -0.11670167744159698, 0.25295698642730713, -0.0710323303937912, -0.13591834902763367, 0.1144556775689125, -0.08564922958612442, 0.11526060104370117, -0.11073426157236099, -0.36345940828323364, -0.05413541942834854, -0.2745289206504822, 0.062117576599121094, -0.18186695873737335, 0.027102483436465263, -0.44446468353271484, -0.24888357520103455, 0.10536571592092514, -0.07820500433444977, -0.13502490520477295, -0.3540259301662445, -0.2284650355577469, -0.0381498858332634, -0.10199220478534698, -0.366428405046463, -0.077720046043396, 0.23434774577617645, -0.3949035406112671, -0.14066551625728607, 0.06750685721635818, 0.1277533322572708, -0.05330165475606918, -0.04655192047357559, 0.1252301037311554, -0.11155558377504349, -0.06014657020568848, -0.12363871932029724, -0.12273070216178894, 0.24918146431446075
  , 0.25648927688598633, -0.07147008180618286, -0.21489374339580536, 0.031869567930698395, -0.2990131676197052, -0.31267625093460083, -0.021151689812541008, -0.09524983167648315, -0.03593966364860535, -0.5180906057357788, 0.023002199828624725, -0.001292564207687974, -0.059399545192718506, 0.18064619600772858, 0.0008120440179482102, 0.11249004304409027, -0.02194354124367237, 0.024464957416057587, -0.14800557494163513, -0.08929360657930374, 0.2767563760280609, -0.06339102983474731, 0.2727902829647064, -0.11880558729171753, -0.14760622382164001, -0.08776277303695679, 0.09330006688833237, -0.13040170073509216, -0.07935532927513123, 0.26024535298347473, 0.378429651260376, -0.10075072199106216, 0.17940424382686615, 0.38540804386138916, 0.22259420156478882, 0.24696466326713562, 0.08465075492858887, 0.2550605237483978, -0.11237502098083496, 0.025948137044906616, 0.2083819955587387, 0.025896040722727776, -0.22376419603824615, -0.06683587282896042, 0.10152430832386017, 0.006738884374499321, 0.14929501712322235, -0.13639876246452332, 0.177133247256279, -0.20101211965084076, -0.011126412078738213, -0.08760921657085419, 0.10714706033468246, -0.028522470965981483, -0.15021443367004395, -0.10313025116920471
  , 0.20063990354537964, 0.07289128005504608, -0.0449129119515419, 0.10772377252578735, -0.18163490295410156, -0.22264686226844788, -0.12464803457260132, -0.20835238695144653, 0.35205793380737305, -0.2024301439523697, -0.06896091997623444, 0.09782915562391281, 0.053625307977199554, -0.026035955175757408, -0.14680534601211548, 0.04797224700450897, 0.027252739295363426, 0.09164318442344666, 0.018299801275134087, -0.024396803230047226, -0.13119779527187347, 0.3846893012523651, 0.10653601586818695, -0.12314262986183167, -0.1764988750219345, -0.0772157534956932, 0.13942401111125946, -0.14636878669261932, 0.0603526271879673, 0.17009882628917694, 0.13819251954555511, -0.12598635256290436, -0.1338796466588974, 0.23036719858646393, 0.18000935018062592, 0.07113229483366013, 0.3093029856681824, -0.17465248703956604, 0.019938312470912933, -0.27040818333625793, -0.076088085770607, 0.2571042776107788, 0.06735583394765854, -0.005994300823658705, -0.2128106951713562, 0.14837287366390228, 0.23436479270458221, 0.5078399777412415, 0.13371840119361877, 0.02637419104576111, 0.006251756101846695, 0.1320742815732956, 0.03672613576054573, 0.0007556282798759639, -0.21852825582027435, -0.05453629419207573
  , -0.21974995732307434, -0.03887644410133362, -0.016864197328686714, 0.011568102054297924, -0.01786542870104313, 0.0717320591211319, -0.3126528263092041, 0.4322662949562073, 0.07360932230949402, -0.10820259898900986, -0.033131424337625504, -0.024566734209656715, -0.24410739541053772, 0.2216872274875641, 0.10056983679533005, 0.1775403618812561, -0.15639379620552063, -0.034309014678001404, 0.3836868405342102, -0.10726188123226166, 0.22000329196453094, -0.10542730987071991, -0.21142436563968658, 0.09115464240312576, 0.053468283265829086, -0.017130732536315918, -0.28888261318206787, 0.4038517475128174, 0.24522720277309418, 0.06858669966459274, 0.30564773082733154, -0.22664062678813934, -0.11995534598827362, -0.0676877498626709, 0.08506867289543152, -0.0647720918059349, -0.1896100789308548, -0.03556874394416809, 0.2314160019159317, 0.053441423922777176, 0.1228303536772728, -0.4372381567955017, 0.21953845024108887, 0.2324068397283554, 0.04974296689033508, -0.14451009035110474, 0.02994959056377411, -0.022514283657073975, -0.2689538896083832, 0.17340628802776337, -0.10035521537065506, -0.014676167629659176, -0.11056012660264969, 0.4246408939361572, 0.1652199923992157, -0.1690693348646164
  , 0.010693410411477089, 0.009715089574456215, -0.3224908411502838, -0.3585124611854553, 0.007153008598834276, -0.07771502435207367, -0.17016007006168365, 0.08431440591812134, 0.1689668595790863, 0.017230549827218056, -0.16360485553741455, -0.15507623553276062, 0.012581301853060722, -0.09414581954479218, 0.23638741672039032, 0.28461000323295593, -0.07928150147199631, -0.013673031702637672, 0.22359444200992584, -0.013282752595841885, 0.13003595173358917, 0.0883343443274498, -0.36905407905578613, -0.35646378993988037, -0.05373707041144371, -0.005066446028649807, 0.11733423173427582, -0.005226583685725927, -0.014483841136097908, 0.1666269451379776, 0.17899970710277557, -0.34017249941825867, -0.3328991234302521, -0.17522548139095306, 0.11901494115591049, -0.12373697012662888, -0.24050912261009216, -0.03968971595168114, 0.3056580424308777, 0.15105652809143066, 0.14908340573310852, 0.1320267766714096, 0.2230835258960724, 0.231128990650177, 0.035527508705854416, 0.3850209712982178, 0.10822872817516327, 0.006932675838470459, -0.016726398840546608, 0.021598000079393387, 0.2998829782009125, 0.1677267849445343, -0.28273364901542664, 0.032843828201293945, 0.26416927576065063, 0.14588770270347595
  , 0.09111472219228745, -0.06555832177400589, 0.46490243077278137, -0.09563776850700378, 0.1612207293510437, 0.0766863226890564, -0.029468702152371407, -0.2950681746006012, 0.039621517062187195, 0.23864945769309998, -0.06794217973947525, -0.13108853995800018, -0.31125983595848083, -0.002693976741284132, -0.061929114162921906, 0.12050937116146088, -0.2127397060394287, -0.07466257363557816, 0.10455434024333954, -0.19091255962848663, -0.15810918807983398, -0.36061981320381165, 0.06113414093852043, 0.22501419484615326, 0.01279016025364399, -0.04497438669204712, -0.2680320143699646, 0.09663963317871094, 0.18335095047950745, 0.05625445768237114, 0.007110556121915579, 0.012810219079256058, -0.030805591493844986, 0.19242911040782928, -0.08062862604856491, 0.32733914256095886, 0.027416380122303963, 0.08755967020988464, 0.06076124310493469, -0.04961950704455376, -0.04440246894955635, -0.03175999969244003, -0.006461338605731726, -0.06620176136493683, 0.055543020367622375, -0.14228808879852295, -0.33059027791023254, 0.36321091651916504, 0.027777506038546562, -0.21005071699619293, 0.09177830815315247, 0.07428198307752609, -0.04960302636027336, 0.22189943492412567, 0.34179961681365967, 0.02080446109175682
  , -0.05622563511133194, 0.12381736189126968, -0.171248659491539, -0.14546960592269897, -0.1850145310163498, 0.2590219974517822, 0.22677995264530182, -0.023657992482185364, -0.09185875952243805, -0.28309404850006104, 0.06704351305961609, -0.10471946746110916, -0.24206262826919556, -0.3505221903324127, 0.3057527542114258, -0.1610964685678482, -0.11658761650323868, 0.21538585424423218, -0.15113459527492523, 0.07722692936658859, -0.15797832608222961, 0.1513212025165558, 0.12989991903305054, 0.3422941565513611, 0.24993781745433807, 0.22911489009857178, -0.2996020019054413, -0.029425490647554398, -0.2771429121494293, -0.09072462469339371, 0.06852023303508759, 0.024382811039686203, 0.20692326128482819, -0.04382587969303131, -0.05120297521352768, 0.02175440825521946, -0.11397396773099899, 0.23081178963184357, 0.31177154183387756, 0.15441490709781647, -0.04996926337480545, -0.017529139295220375, -0.11746935546398163, 0.3147001564502716, -0.22006110846996307, 0.05294332280755043, 0.029900582507252693, 0.006647377274930477, 0.32090047001838684, -0.2729893624782562, 0.12265009433031082, -0.22577230632305145, 0.23553484678268433, -0.0740274041891098, -0.16819459199905396, 0.0971652939915657
  ]

feature_extraction_block/feature_extraction_b =
[0.050465334206819534, 0.004641818348318338, -0.09795093536376953, 0.04215751215815544, 0.022614814341068268, 0.037329256534576416, 0.011749192140996456, 0.047477420419454575, -0.003829361405223608, -0.09754788875579834, -0.04905795305967331, -0.048725519329309464, 0.007636988535523415, 0.02115057222545147, -0.002941261976957321, -0.016040494665503502, 0.03378493711352348, -0.02561601810157299, 0.03021307662129402, -0.08048653602600098, -9.643285011406988e-05, 0.04383295029401779, -0.1064731776714325, 0.01624198816716671, -0.004891904070973396, -0.04980337247252464, -0.03427794203162193, -0.014729851856827736, 0.019768860191106796, 0.005870797671377659, 0.0011949402978643775, 0.03121340274810791, -0.07720211893320084, -0.03875026851892471, 0.013313529081642628, 0.03429519385099411, -0.08388786762952805, 0.07248092442750931, -0.004769480787217617, 0.017821501940488815, -0.015020796097815037, 0.03132406249642372, -0.13555394113063812, 0.02658628486096859, 0.01031004823744297, 0.0363682396709919, -0.006680055055767298, -0.006176692433655262, 0.014702203683555126, -0.1063975840806961, 0.02292206883430481, -0.03307025879621506, -0.0025735439267009497, 0.019632447510957718, -0.027757970616221428, 0.006789895240217447]

shrinking_block/alpha1 =
[0.509566068649292, 0.05499665439128876, 0.22350282967090607, 0.20626863837242126, 0.18920914828777313, 1.0538396835327148, 1.0711044073104858, 0.9076240062713623, 0.9988593459129333, 0.5747599005699158, 0.21753628551959991, 0.5657081604003906, 0.9411547780036926, 1.050752878189087, 1.108853816986084, 0.9860820770263672, 1.0369282960891724, 0.6644738912582397, 0.9936746954917908, 0.2110336273908615, 1.0138388872146606, 0.9809487462043762, 0.27091121673583984, 0.9824188947677612, 0.8076670169830322, 0.16422882676124573, 0.20820757746696472, 1.0659120082855225, 0.9499102234840393, 0.8736677765846252, 0.6744900345802307, 1.0159242153167725, 0.26760512590408325, 1.371018886566162, 0.9897083640098572, 0.8326520919799805, 0.2044498324394226, 0.9744129776954651, 1.0027858018875122, 1.0622605085372925, 1.0347373485565186, 0.7530494928359985, 0.2067079395055771, 0.9875487685203552, 1.004801630973816, 0.9635717272758484, 1.041089653968811, 1.0398142337799072, 1.0075603723526, 0.22347328066825867, 1.1335114240646362, 0.23319478332996368, 1.009950041770935, 1.0743261575698853, 1.2386630773544312, 0.9273163080215454]

shrinking_block/shrinking_w =
[-0.09343592822551727, -0.013161475770175457, -0.24592618644237518, -0.21750468015670776, -0.35468071699142456, -0.6118662357330322, -0.12249752134084702, -0.21388722956180573, 0.257675439119339, -0.06222882121801376, -0.19936728477478027, -0.14844495058059692
  , -0.020401831716299057, 0.023542173206806183, -0.020528074353933334, 0.04817303270101547, -0.0770113617181778, -0.13107119500637054, -0.10781748592853546, -0.19199803471565247, -0.07676474750041962, 0.0662749856710434, -0.12544311583042145, 0.3359285593032837
  , 0.12687386572360992, 0.13156741857528687, 0.29265356063842773, -0.016839884221553802, -0.1027131900191307, 0.2827572822570801, 0.21036985516548157, 0.2929627597332001, 0.10493753850460052, 0.10769865661859512, -0.29199180006980896, 0.0310684647411108
  , -0.12840566039085388, -0.06019860506057739, -0.007111643441021442, 0.18305540084838867, -0.12374161928892136, -0.3105328679084778, 0.08271843194961548, 0.17925916612148285, 0.054003674536943436, 0.10320013761520386, 0.03354959562420845, 0.15480221807956696
  , -0.030979808419942856, 0.08372543007135391, 0.008247637189924717, -0.02599957026541233, 0.16788643598556519, 0.07978714257478714, -0.002814571838825941, 0.14516161382198334, -0.25356701016426086, 0.09088446199893951, -0.10641296952962875, -0.05817941576242447
  , 0.21265560388565063, 0.021103138104081154, -0.09008780121803284, -0.15255707502365112, -0.23717741668224335, -0.07865706086158752, 0.004507966805249453, 0.033119942992925644, -0.11705836653709412, -0.04870457202196121, -0.016513768583536148, 0.236469104886055
  , 0.0409705825150013, -0.0502057783305645, 0.11518503725528717, 0.024932188913226128, 0.005510762333869934, -0.07442829012870789, -0.04747307300567627, -0.10433059930801392, 0.25764405727386475, 0.06435789167881012, -0.07606155425310135, -0.29448777437210083
  , -0.05980423092842102, 0.05397390201687813, -0.11747351288795471, 0.039331208914518356, 0.13110433518886566, -0.04688866809010506, -0.11390519887208939, -0.049014974385499954, -0.025392046198248863, -0.290082186460495, 0.28711971640586853, 0.039357464760541916
  , 0.182034432888031, -0.1455322504043579, 0.2705649137496948, -0.015228824689984322, -0.06409142166376114, -0.0006783597054891288, -0.18480361998081207, -0.2428230196237564, -0.11443037539720535, -0.028924986720085144, -0.268428236246109, -0.08844542503356934
  , -0.09613562375307083, -0.21134480834007263, -0.07870441675186157, 0.13973797857761383, -0.09821027517318726, -0.09977015107870102, -0.0675920620560646, -0.06555929034948349, 0.10386833548545837, 0.365997314453125, 0.09133400022983551, -0.015090915374457836
  , 0.039936039596796036, 0.22533711791038513, 0.13908366858959198, 0.010632814839482307, 0.06652376800775528, -0.020368322730064392, -0.07055220007896423, 0.01221827045083046, -0.17615298926830292, -0.12130852788686752, 0.016903502866625786, -0.1926185041666031
  , -0.10266769677400589, 0.10336502641439438, 0.06990846991539001, -0.03089165687561035, -0.16694656014442444, -0.2647779583930969, -0.07237233966588974, -0.24194547533988953, -0.0950474813580513, -0.04624728485941887, -0.015864551067352295, 0.09719544649124146
  , 0.10113119333982468, -0.1989034116268158, -0.04070663824677467, 0.0499398298561573, -0.04453001916408539, 0.23550552129745483, -0.06804025173187256, 0.16365733742713928, 0.21395151317119598, -0.04108626767992973, -0.21263568103313446, -0.1579473614692688
  , 0.07308053970336914, -0.10074938088655472, 0.11866071075201035, -0.056138280779123306, -0.2888481318950653, 0.047264110296964645, -0.043653130531311035, 0.10659776628017426, -0.08686957508325577, 0.18716426193714142, -0.23047564923763275, 0.13035210967063904
  , -0.00595357920974493, -0.09479624032974243, 0.016920747235417366, -0.12167694419622421, 0.015961341559886932, -0.07551950216293335, 0.16970515251159668, -0.00913154985755682, 0.06676110625267029, 0.18173012137413025, -0.16900919377803802, -0.05627307668328285
  , -0.2750616669654846, 0.22991544008255005, -0.15982259809970856, 0.06689801067113876, -0.09332279860973358, -0.03380399942398071, -0.10389160364866257, -0.06959313154220581, 0.2047300487756729, -0.09340124577283859, 0.15928393602371216, -0.16816812753677368
  , -0.09550152719020844, -0.07900255173444748, 0.09112077951431274, 0.011921359226107597, -0.10905542224645615, -0.11439711600542068, 0.1532195508480072, -0.08064267039299011, 0.2661123275756836, 0.1868947446346283, -0.20892567932605743, -0.0724632665514946
  , -0.07793381065130234, 0.06170038506388664, -0.062185440212488174, -0.05705661699175835, -0.03713633492588997, -0.2671077847480774, -0.10137852281332016, 0.1745625138282776, -0.07153936475515366, -0.03723287954926491, -0.03675227612257004, -0.06822867691516876
  , -0.12938760221004486, 0.3349563181400299, 0.11192487925291061, 0.10771398991346359, 0.04844363406300545, -0.049381934106349945, -0.07231860607862473, 0.09054842591285706, 0.11179371923208237, -0.07140188664197922, 0.21744579076766968, 0.038866378366947174
  , 0.09934505820274353, 0.16087742149829865, 0.0550093911588192, 0.011391510255634785, -0.3958573341369629, -0.01739378087222576, -0.20966900885105133, 0.09172049909830093, 0.1611185222864151, -0.20906475186347961, 0.20948702096939087, 0.1104336678981781
  , -0.19806347787380219, 0.21883118152618408, 0.0853932574391365, -0.021442770957946777, 0.10656077414751053, -0.18922454118728638, -0.03263255953788757, 0.019706053659319878, 0.06490153074264526, 0.01768404245376587, -0.12876836955547333, -0.15620777010917664
  , 0.1236039325594902, 0.13930952548980713, -0.178169384598732, 0.09172908961772919, 0.20606568455696106, 0.06015860661864281, 0.06608141213655472, 0.08720710128545761, -0.16914471983909607, 0.14380429685115814, 0.20978029072284698, -0.07107596844434738
  , 0.2002202868461609, -0.021219223737716675, 0.06886748969554901, -0.14214329421520233, -0.009973539039492607, 0.0967988520860672, 0.15829084813594818, 0.012427925132215023, -0.12446530163288116, 0.0002932812785729766, -0.18761572241783142, -0.06459885835647583
  , -0.015298329293727875, -0.021649040281772614, 0.04813564568758011, -0.045171208679676056, 0.15067967772483826, -0.1296408325433731, -0.1162925437092781, 0.011582228355109692, 0.1552494913339615, 0.40627923607826233, 0.008258813060820103, -0.3841140568256378
  , 0.0019222722621634603, -0.04745585098862648, -0.02284005656838417, 0.1461719274520874, 0.04472153261303902, -0.01826612651348114, -0.05308414250612259, -0.054651692509651184, 0.19159747660160065, -0.2625468671321869, 0.09950083494186401, -0.14391306042671204
  , -0.042854100465774536, 0.12562476098537445, -0.02875739336013794, 0.039060335606336594, 0.1574341505765915, -0.02384944260120392, 0.10539448261260986, -0.14925654232501984, 0.09655193984508514, -0.17720574140548706, 0.038856614381074905, 0.08634877949953079
  , 6.709739682264626e-05, 0.1130523756146431, -0.001301146694459021, 0.05713021382689476, -0.14350928366184235, 0.24135343730449677, -0.078056201338768, 0.07962154597043991, -0.09721279889345169, -0.12709316611289978, 0.2387935072183609, 0.13398252427577972
  , 0.23657317459583282, -0.03029320016503334, 0.2792328894138336, 0.14813219010829926, 0.0903567373752594, -0.20064713060855865, 0.18604688346385956, -0.038949139416217804, 0.22836185991764069, -0.2142338901758194, 0.026931455358862877, 0.222879558801651
  , 0.09589629620313644, 0.05127304419875145, 0.24425800144672394, -0.06560803204774857, 0.09089776128530502, 0.1831093579530716, 0.18894988298416138, 0.15323692560195923, 0.1046811118721962, 0.2220805436372757, -0.1359023004770279, -0.1460576206445694
  , -0.2095877230167389, 0.03812263160943985, 0.051400814205408096, -0.14560529589653015, -0.09812700748443604, -0.027958771213889122, -0.1339331865310669, -0.018873805180191994, 0.14900285005569458, 0.00048489353503100574, -0.011720208451151848, 0.2592437267303467
  , 0.22864146530628204, -0.09182075411081314, -0.16508454084396362, -0.11351485550403595, -0.2514222264289856, 0.13669295608997345, 0.3539244830608368, -0.03890993073582649, -0.033321186900138855, 0.08152129501104355, -0.311431348323822, -0.1688108891248703
  , 0.21801482141017914, 0.12051698565483093, 0.14214874804019928, -0.23530952632427216, -0.2774360775947571, 0.22989991307258606, -0.1546185165643692, -0.21764160692691803, -0.10886305570602417, -0.19690905511379242, -0.13710129261016846, -0.21940934658050537
  , -0.09848939627408981, -0.011858760379254818, 0.006379669066518545, 0.09617291390895844, -0.13117150962352753, -0.2857610583305359, 0.26071488857269287, 0.13803625106811523, -0.21066096425056458, -0.08024097979068756, -0.2375624179840088, -0.2792830467224121
  , -0.27839842438697815, 0.2090320736169815, 0.018890872597694397, 0.19716697931289673, 0.04902262985706329, -0.04264238476753235, -0.18152375519275665, 0.06067842245101929, 0.05090207979083061, 0.03288371115922928, 0.27392804622650146, 0.104848213493824
  , 0.1011982336640358, -0.03218310326337814, 0.12772557139396667, 0.012175300158560276, 0.18928013741970062, -0.21773220598697662, 0.03520962595939636, -0.18225209414958954, 0.027887294068932533, 0.1723496913909912, 0.16643889248371124, -0.1927078515291214
  , 0.39646613597869873, -0.17801645398139954, 0.09446331113576889, 0.19587813317775726, 0.03456063196063042, 0.22104527056217194, 0.110488660633564, 0.08436090499162674, -0.16995282471179962, -0.23341380059719086, 0.10133813321590424, 0.15078884363174438
  , -0.26174062490463257, -0.047081008553504944, -0.07526932656764984, -0.03494323790073395, -0.1448832005262375, 0.1905854493379593, -0.14058703184127808, -0.1810508370399475, 0.1764848232269287, -0.05913027003407478, -0.12429331988096237, 0.04993921145796776
  , 0.000505786039866507, -0.08171700686216354, -0.1485699564218521, 0.16382059454917908, 0.04002063348889351, 0.361268013715744, -0.03761269524693489, 0.11819515377283096, -0.20615047216415405, -0.3554818630218506, -0.18320325016975403, 0.06481880694627762
  , -0.3162992000579834, -0.03242312744259834, -0.16726110875606537, 0.03512066230177879, 0.03189956769347191, 0.019856611266732216, 0.05573192611336708, -0.14940999448299408, 0.03407779335975647, 0.30681994557380676, -0.17140106856822968, -0.15059873461723328
  , 0.07877568900585175, -0.054380372166633606, 0.22919373214244843, -0.043718885630369186, 0.016444936394691467, -0.029827678576111794, -0.3015121817588806, 0.05328495055437088, -0.2578973174095154, 0.04525739699602127, -0.020133500918745995, 0.16512469947338104
  , 0.1060556173324585, -0.07939175516366959, 0.22182834148406982, 0.22586295008659363, -0.24421632289886475, 0.03621914982795715, -0.06854923814535141, 0.203640416264534, 0.14753618836402893, -0.11331174522638321, 0.2935134768486023, 0.21915879845619202
  , -0.07696737349033356, 0.204458087682724, 0.05551206320524216, 0.009613252244889736, -0.03512154892086983, -0.3792736232280731, 0.08308886736631393, -0.221839040517807, -0.13846994936466217, 0.09881079196929932, -0.2599358558654785, -0.05472159758210182
  , -0.11271761357784271, 0.06181604787707329, -0.16122107207775116, -0.10036813467741013, -0.08289606869220734, -0.08869786560535431, -0.10344456881284714, -0.06527777016162872, 0.029226107522845268, -0.1191835105419159, -0.02988974191248417, 0.06855131685733795
  , 0.19905202090740204, -0.026861773803830147, 0.26835012435913086, -0.0027460805140435696, -0.29258033633232117, 0.09802524745464325, -0.13572923839092255, -0.12049398571252823, 0.22611895203590393, 0.22139447927474976, -0.17718268930912018, 0.04139554873108864
  , 0.025461839511990547, 0.20198842883110046, 0.05256244167685509, -0.026851579546928406, -0.10877063870429993, -0.08827188611030579, 0.16161638498306274, 0.04955976828932762, 0.21758681535720825, 0.20547014474868774, -0.032065220177173615, -0.1702052801847458
  , 0.08979109674692154, -0.24971230328083038, 0.014657787047326565, -0.08678454905748367, -0.06978996098041534, 0.017479507252573967, -0.11152780055999756, -0.054633621126413345, -0.2554878294467926, -0.1301039159297943, 0.16628818213939667, -0.031682636588811874
  , -0.0899314358830452, -0.06676407903432846, 0.24215272068977356, -0.13504326343536377, 0.10190696269273758, 0.07692817598581314, 0.09240671247243881, -0.13618886470794678, 0.16625577211380005, 0.09787867218255997, 0.10117343813180923, -0.05139322578907013
  , 0.0650305524468422, -0.004784285556524992, -0.0855715274810791, 0.1249004602432251, 0.07493706047534943, 0.049441706389188766, -0.059985555708408356, 0.1119462251663208, 0.11512308567762375, -0.2614395022392273, 0.04573294147849083, -0.11907465010881424
  , -0.04955211654305458, 0.03844837844371796, 0.17881420254707336, -0.06027236580848694, -0.08912603557109833, -0.03385208547115326, -0.15764881670475006, -0.0297817625105381, 0.04512873291969299, 0.12711316347122192, 0.04390633851289749, 0.2138597071170807
  , 0.04046935960650444, -0.11149786412715912, -0.08378560841083527, -0.05050128325819969, 0.0430050827562809, 0.13164979219436646, 0.09998301416635513, -0.02837708778679371, -0.25395455956459045, -0.11460011452436447, -0.27639833092689514, 0.08346163481473923
  , 0.11146306246519089, 0.152959942817688, 0.15027527511119843, 0.029850231483578682, -0.004159961361438036, -0.052497562021017075, 0.02944936603307724, -0.05187860131263733, 0.05279664695262909, 0.13193480670452118, 0.227410227060318, -0.06399344652891159
  , -0.08297962695360184, -0.051856376230716705, 0.08854658156633377, 0.19463664293289185, 0.08828175067901611, 0.03367072716355324, -0.04713379219174385, 0.1747984141111374, -0.0713360458612442, -0.11660361289978027, -0.12472822517156601, 0.2816829979419708
  , -0.30190640687942505, 0.19087760150432587, 0.024836331605911255, 0.06847066432237625, -0.08739040046930313, -0.01526679564267397, 0.2298714965581894, -0.002531103091314435, 0.1944170594215393, 0.05881258100271225, 0.06581475585699081, 0.13282841444015503
  , -0.056410904973745346, -0.17962242662906647, -0.09300553053617477, -0.21662692725658417, -0.20950929820537567, 0.10818908363580704, -0.21561095118522644, 0.16061583161354065, -0.1328229159116745, -0.11677788943052292, -0.16280847787857056, 0.0033778613433241844
  , -0.15671221911907196, 0.07899434864521027, -0.1546207070350647, 0.02651115506887436, 0.07224587351083755, -0.12672732770442963, 0.05794961005449295, -0.3719441890716553, -0.10549146682024002, 0.22990281879901886, 0.07558011263608932, -0.0012616345193237066
  , -0.1921502649784088, 0.1458575427532196, 0.118301622569561, -0.09877870976924896, -0.012546593323349953, 0.06672533601522446, 0.22206410765647888, -0.054491739720106125, 0.11810359358787537, 0.08912936598062515, 0.14191824197769165, -0.03659936413168907
  ]

shrinking_block/shrinking_b =
[-0.005002711899578571, -0.0034516279119998217, -0.004217499867081642, -0.009959389455616474, 0.06813766062259674, 0.0336776077747345, 0.046588048338890076, 0.010175940580666065, -0.02684646286070347, -0.016651349142193794, 0.010200804099440575, 0.0032189455814659595]

mapping_block/w3 =
[-0.12698397040367126, -0.11649189889431, -0.04348914697766304, -0.07433285564184189, -0.22253616154193878, 0.14120441675186157, -0.012959636747837067, 0.044464096426963806, 0.007575842551887035, 0.08238765597343445, -0.060658179223537445, 0.060735344886779785
  , -0.07918458431959152, 0.023237090557813644, 0.05518937483429909, -0.06407598406076431, -0.05801751837134361, 0.01905452087521553, -0.13501997292041779, -0.06137729063630104, -0.04466528072953224, -0.05917651951313019, 0.17420198023319244, 0.12319010496139526
  , -0.027612026780843735, -0.14846549928188324, -0.11720288544893265, -0.01946176402270794, -0.00921526551246643, -0.07008599489927292, 0.050601258873939514, -0.06483735889196396, -0.021644117310643196, 0.0225510373711586, -0.18730011582374573, -0.08892302215099335
  , 0.08350247889757156, -0.05363638326525688, -0.045828282833099365, 0.17585569620132446, 0.044005703181028366, 0.03083578683435917, 0.14533041417598724, 0.09874036908149719, -0.19349676370620728, -0.025202898308634758, -0.03568871319293976, 0.06555838882923126
  , -0.1038069799542427, -0.0796198844909668, -0.03227696940302849, 0.031332436949014664, 0.023547466844320297, -0.037851814180612564, -0.09128519892692566, -0.09800584614276886, 0.058665256947278976, -0.02272249013185501, -0.1461184322834015, 0.07796245813369751
  , 0.017350750043988228, -0.04138296842575073, 0.04829297214746475, -0.017095154151320457, -0.04816817492246628, 0.13599200546741486, 0.07912617176771164, 0.04248427227139473, 0.02362855337560177, -0.059596870094537735, -0.02975686825811863, -0.09275823086500168
  , 0.09607919305562973, 0.12248685956001282, -0.03921736031770706, -0.08518067002296448, 0.03743455931544304, -0.01135324127972126, 0.0473734475672245, -0.0821254774928093, 0.01839616149663925, 0.018584508448839188, -0.025805223733186722, 0.15270021557807922
  , 0.09271079301834106, -0.0041807908564805984, 0.10616656392812729, -0.1680130809545517, 0.053767625242471695, -0.11095986515283585, 0.05478585511445999, 0.020266549661755562, 0.16994836926460266, 0.07660835236310959, -0.06978626549243927, 0.029677988961338997
  , -0.04117358848452568, -0.06693308800458908, 0.08454600721597672, -0.1449991762638092, 0.03248618543148041, 0.025627361610531807, 0.08187359571456909, -0.08167991787195206, -0.04046552628278732, 0.25246647000312805, -0.03749764710664749, -0.13798633217811584
  , -0.045191630721092224, 0.09936795383691788, 0.07010272145271301, -0.037391241639852524, -0.06416745483875275, -0.1121084913611412, 0.17622800171375275, -0.0019435299327597022, 0.2870020866394043, -0.06847424805164337, -0.08030175417661667, -0.0448446050286293
  , -0.045753542333841324, -0.0581207238137722, 0.033998534083366394, -0.07297150045633316, -0.17885150015354156, 0.14732831716537476, 0.01665792241692543, 0.05252274498343468, -0.011302982456982136, 0.11745063960552216, -0.0468008890748024, -0.007404467556625605
  , -0.013671363703906536, -0.08096983283758163, 0.01166995894163847, -0.08248632401227951, -0.08963222056627274, -0.030904004350304604, -0.028396304696798325, -0.07863716781139374, 0.16745178401470184, -0.01838955655694008, 0.0438137985765934, -0.1067742258310318
  , -0.02233947440981865, -0.08299968391656876, 0.11871639639139175, -0.17504999041557312, 0.052624065428972244, -0.08933982253074646, -0.11646662652492523, 0.12211371958255768, 0.1476244330406189, 0.06081502139568329, -0.016260571777820587, 0.05900825560092926
  , 0.126905620098114, 0.10198874026536942, 0.028103647753596306, -0.0007539679063484073, 0.04540325701236725, -0.2183271050453186, 0.08872494846582413, 0.004780770279467106, 0.06373504549264908, -0.11072149127721786, -0.10820332914590836, -0.1584964096546173
  , 0.06655999273061752, 0.03309682011604309, -0.027611814439296722, -0.006358528975397348, 0.004646188113838434, 0.018540402874350548, 0.08690831065177917, -0.048342809081077576, 0.15860983729362488, 0.055055536329746246, 0.04972502216696739, -0.06706617772579193
  , -0.16096216440200806, -0.052804261445999146, 0.10201994329690933, -0.029829906299710274, 0.1834576427936554, -0.32914069294929504, 0.029219340533018112, -0.12929868698120117, -0.03191174939274788, 0.08907894790172577, -0.049127016216516495, 0.16279008984565735
  , -0.11895106732845306, -0.03187590837478638, -0.014296694658696651, -0.04843592271208763, -0.07986132800579071, -0.17982086539268494, -0.1736854761838913, -0.20423007011413574, -0.06847789883613586, 0.11190570145845413, -0.16383692622184753, 0.053994130343198776
  , 0.0023661002051085234, -0.15000584721565247, 0.096266970038414, -0.015778491273522377, -0.09551610052585602, 0.15352527797222137, 0.03099934384226799, -0.09250693023204803, -0.08294807374477386, 0.19848433136940002, -0.08592241257429123, -0.01919947937130928
  , -0.11119100451469421, 0.03205311670899391, 0.12104354053735733, -0.20409975945949554, 0.07584190368652344, -0.12880206108093262, -0.019066935405135155, 0.0724887028336525, -0.1164068952202797, -0.1177784726023674, -0.18067412078380585, -0.1581735908985138
  , -0.04876567795872688, 0.10692152380943298, 0.024131979793310165, -0.21299903094768524, 0.06773904711008072, 0.17164872586727142, -0.026324016973376274, 0.07131104171276093, -0.12927313148975372, -0.044819340109825134, -0.04002964869141579, -0.0449552908539772
  , 0.03177102282643318, 0.010845411568880081, -0.10576978325843811, -0.029710598289966583, 0.07519620656967163, 0.12943680584430695, -0.06433948129415512, 0.11258435994386673, -0.1056392639875412, 0.047887206077575684, -0.010082688182592392, -0.11082673817873001
  , -0.08359213918447495, -0.1535959541797638, -0.03843150660395622, -0.01671018823981285, -0.322480708360672, 0.21093574166297913, 0.10914885997772217, 0.06052149459719658, 0.1102745458483696, -0.4354209899902344, -0.2283526510000229, 0.09769097715616226
  , 0.09366068243980408, -0.04540641978383064, 0.1505487710237503, 0.2652814984321594, -0.14971916377544403, -0.3701062798500061, -0.0874980017542839, -0.03827309608459473, 0.06216469034552574, 0.3211859166622162, -0.07611516863107681, 0.0419355072081089
  , 0.13632193207740784, -0.00744394538924098, -0.05861281231045723, 0.056641511619091034, 0.11160151660442352, 0.1171843409538269, -0.0014732113340869546, 0.02644573524594307, 0.16508570313453674, 0.19663310050964355, 0.1357140839099884, 0.09947686642408371
  , 0.1267375648021698, -0.07957975566387177, 0.06950921565294266, -0.1218431293964386, 0.005286063067615032, -0.11122942715883255, 0.13406440615653992, -0.05938117578625679, -0.021516861394047737, 0.12686783075332642, 0.0326232835650444, -0.09820037335157394
  , 0.060963429510593414, 0.06230511888861656, -0.029042115435004234, -0.03643814101815224, 0.05685245245695114, 0.06208183616399765, -0.07435876876115799, -0.09716880321502686, -0.06342566758394241, -0.009846233762800694, 0.010186702013015747, -0.11245745420455933
  , 0.003505210392177105, -0.05701058357954025, 0.11187203228473663, 0.1289273053407669, -0.061791978776454926, 0.06741811335086823, -0.02761305309832096, 0.01900549791753292, 0.10194366425275803, 0.1185513287782669, -0.05856933072209358, 0.043431639671325684
  , -0.07768098264932632, 0.02123793214559555, 0.07220479846000671, 0.007564107421785593, -0.06902958452701569, -0.14144301414489746, -0.07698474079370499, -0.13009122014045715, -0.0682334303855896, 0.12924259901046753, -0.08145580440759659, -0.19161005318164825
  , -0.020609918981790543, 0.010804342105984688, -0.04824784770607948, -0.02345452271401882, 0.024277515709400177, 0.045762889087200165, -0.061711180955171585, -0.007506038062274456, 0.14136239886283875, -0.19115982949733734, -0.1500697284936905, -0.15656843781471252
  , -0.026777686551213264, 0.009670375846326351, 0.036120157688856125, 0.016491331160068512, 0.06058860197663307, 0.032324109226465225, -0.01896379329264164, -0.020201079547405243, 8.088427421171218e-05, 0.04658917337656021, 0.03663451969623566, -0.04290534928441048
  , -0.02043331414461136, -0.044918403029441833, -0.11040189117193222, -0.08800610899925232, -0.13733196258544922, -0.10711102932691574, 0.02857905812561512, -0.04767999425530434, 0.04033191129565239, 0.05391716584563255, -0.03593175485730171, -0.041319817304611206
  , 0.00643708324059844, -0.11131516844034195, -0.043827373534440994, 0.041946642100811005, -0.05026077851653099, -0.0067756702192127705, 0.10905522108078003, 0.031664926558732986, 0.11709416657686234, -0.008077762089669704, -0.07949015498161316, -0.07499415427446365
  , 0.067617267370224, -0.038494355976581573, -0.01300167664885521, -0.17806439101696014, -0.03254876285791397, -0.03859914466738701, -0.05487562716007233, 0.1257501095533371, -0.07775969803333282, 0.017399275675415993, 0.01721743866801262, 0.19356298446655273
  , -0.13336902856826782, -0.02103401906788349, 0.12046529352664948, 0.15802069008350372, 0.14353397488594055, -0.02472272701561451, 0.11770854145288467, -0.037557706236839294, -0.0005547127802856266, -0.02978476881980896, -0.1092042475938797, -0.008959147147834301
  , -0.13789157569408417, 0.10940992832183838, -0.1127309650182724, -0.14461363852024078, -0.12092364579439163, 0.06957481056451797, -0.13463875651359558, -0.1610054075717926, 0.21631623804569244, 0.02682199329137802, 0.03954068943858147, 0.2508622705936432
  , 0.023603318259119987, 0.14358192682266235, 0.043972816318273544, -0.035475969314575195, -0.06504888087511063, 0.004779773764312267, -0.21113750338554382, 0.08348507434129715, -0.0077672661282122135, -0.04577282816171646, -0.014333153143525124, -0.0005266533698886633
  , -0.0400027297437191, -0.043323587626218796, -0.04945918917655945, -0.07362783700227737, -0.005448957439512014, 0.03358936309814453, -0.03806694969534874, 0.15721480548381805, 0.28383734822273254, -0.1561276912689209, -0.10793755948543549, -0.004341216292232275
  , -0.05541052296757698, -0.10120435059070587, -0.14968492090702057, -0.16760173439979553, -0.11274312436580658, -0.022809863090515137, -0.0828494131565094, 0.1882244050502777, 0.058215558528900146, 0.09986700117588043, -0.17867213487625122, 0.03301467373967171
  , -0.11996147781610489, 0.19547270238399506, -0.11447146534919739, -0.09652365744113922, -0.17695502936840057, -0.01678454875946045, -0.08599091321229935, 0.1625438928604126, 0.04987575113773346, -0.04644760489463806, -0.039000991731882095, 0.020899437367916107
  , 0.005437513813376427, 0.07198264449834824, 0.0339033380150795, -0.011358470655977726, 0.05370217189192772, -0.19840319454669952, -0.04490605741739273, 0.27464643120765686, 0.015675947070121765, -0.26695016026496887, 0.0357634462416172, -0.2550698518753052
  , -0.024477539584040642, -0.21061491966247559, 0.14080967009067535, 0.3191232979297638, -0.09050090610980988, -0.2567461431026459, -0.12556931376457214, 0.0557389073073864, -0.055360034108161926, -0.2234904021024704, 0.17769472301006317, 0.07091459631919861
  , 0.21266669034957886, -0.13953639566898346, -0.0736517682671547, 0.07570545375347137, -0.07579619437456131, -0.017321446910500526, -0.09806136041879654, 0.013018311932682991, -0.04562721028923988, -0.04411652684211731, 0.15694117546081543, -0.0407240055501461
  , 0.1739024966955185, -0.04707242548465729, -0.08880610018968582, 0.2682603597640991, 0.03468143939971924, -0.06210675835609436, 0.05494552478194237, 0.021356908604502678, 0.07578479498624802, -0.06421563774347305, -0.07128951698541641, 0.0014655604027211666
  , 0.11055272817611694, -0.0364765003323555, -0.07306347042322159, 0.01708867773413658, 0.04590042307972908, -0.04497894272208214, -0.018758615478873253, -0.027867404744029045, 0.08018051087856293, 0.04526359587907791, 0.0008868915028870106, 0.028814684599637985
  , 0.1621730476617813, 0.13765990734100342, -0.0266850758343935, 0.08528811484575272, 0.002970266854390502, -0.13909824192523956, 0.08899210393428802, -0.15170492231845856, -0.19765642285346985, 0.005322206765413284, -0.011343616060912609, -0.04065968468785286
  , 0.10884643346071243, 0.2981821596622467, 0.052418701350688934, 0.024202978238463402, 0.0701679065823555, 0.2336861789226532, -0.12798836827278137, -0.23529770970344543, -0.024740444496273994, 0.06226831674575806, -0.04426465183496475, -0.11680154502391815
  , 0.028827162459492683, -0.1552530825138092, 0.06774444133043289, -0.12246476113796234, 0.06328999996185303, -0.010051939636468887, -0.12984250485897064, 0.15698879957199097, -0.005094696301966906, 0.05279587581753731, 0.013903521932661533, 0.1630856692790985
  , -0.2850589156150818, 0.1317034214735031, 0.026672732084989548, -0.19154255092144012, 0.06631354242563248, -0.040944818407297134, -0.020872553810477257, 0.03174145147204399, -0.014915766194462776, -0.007832746021449566, 0.025036931037902832, 0.0794026106595993
  , -0.0015149780083447695, -0.16371464729309082, -0.05343422666192055, 0.1143668070435524, -0.15109772980213165, -0.0743568018078804, 0.14575891196727753, 0.18603582680225372, -0.1289476752281189, -0.2473725825548172, -0.08708667755126953, 0.013891179114580154
  , 0.020041996613144875, 0.10773048549890518, -0.06006193161010742, 0.11510069668292999, 0.149094358086586, 0.035654306411743164, 0.015210764482617378, -0.03643512353301048, -0.11477299779653549, -0.08023253828287125, 0.05931348726153374, -0.035433053970336914
  , 0.19259077310562134, -0.04399462789297104, -0.09989728033542633, -0.05697404220700264, 0.03413544222712517, -0.024754755198955536, -0.15656432509422302, 0.2051655650138855, -0.09452211856842041, -0.04961460083723068, -0.08030031621456146, -0.026123028248548508
  , 0.025789666920900345, -0.001974676735699177, -0.11121749132871628, 0.17483152449131012, 0.036518119275569916, 0.17897415161132812, 0.12984097003936768, -0.20500844717025757, 0.06938254088163376, -0.09992194175720215, 0.06233680620789528, -0.09447726607322693
  , -0.029873130843043327, -0.15590135753154755, -0.029343176633119583, 0.18902695178985596, 0.1494014710187912, 0.2024431973695755, 0.04751094430685043, -0.05010366067290306, -0.07655452936887741, -0.01864398457109928, 0.13994631171226501, 0.2983861565589905
  , 0.013591429218649864, -0.12074419111013412, -0.002659593475982547, 0.0621122345328331, -0.06338686496019363, -0.11806771159172058, 0.4453088343143463, 0.06198000907897949, 0.03185257688164711, -0.1665014624595642, -0.10120493173599243, 0.14116613566875458
  , -0.33494436740875244, -0.014112059958279133, -0.14025506377220154, -0.10907092690467834, 0.1911487877368927, 0.11419562995433807, 0.1085614562034607, 0.26672807335853577, -0.26115211844444275, -0.04512834548950195, -0.18366290628910065, 0.058690145611763
  , -0.08615115284919739, -0.039441972970962524, -0.029576649889349937, 0.032235611230134964, -0.06725724786520004, 0.16605150699615479, 0.19316349923610687, -0.05863546207547188, -0.03294427692890167, -0.12909549474716187, 0.06271597743034363, 0.12853996455669403
  , -0.23459842801094055, 0.0121865663677454, -0.13163216412067413, -0.0319131463766098, 0.08517847955226898, 0.17579849064350128, -0.4133279323577881, 0.10546737909317017, -0.08477433770895004, -0.052742719650268555, 0.0515248142182827, 0.08055810630321503
  , -0.20208331942558289, 0.03648817911744118, -0.04349035397171974, -0.5615178346633911, 0.22002391517162323, 0.1507154405117035, -0.35159438848495483, 0.1299775093793869, -0.08795306831598282, 0.18503402173519135, 0.11025013774633408, -0.25224053859710693
  , -0.10347291827201843, 0.20221544802188873, -0.004981790669262409, 0.49852263927459717, 0.015063932165503502, 0.004560870584100485, 0.38403722643852234, -0.20298857986927032, -0.0044235908426344395, -0.22066238522529602, 0.08592475205659866, 0.13329051434993744
  , 0.224273219704628, -0.06510255485773087, 0.08448808640241623, 0.10260605067014694, -0.019347622990608215, -0.007484504487365484, 0.04690761864185333, -0.22070224583148956, 0.026757871732115746, -0.04822550714015961, -0.1390680968761444, 0.06588546931743622
  , 0.05174405500292778, 0.1396828442811966, -0.14455105364322662, 0.062001824378967285, -0.10788635164499283, -0.12728512287139893, 0.2850872576236725, 0.001241524238139391, 0.01454253401607275, -0.2822319567203522, -0.15765585005283356, -0.01101719867438078
  , 0.07593610137701035, 0.09846527129411697, -0.03805971518158913, 0.21045692265033722, 0.1841537356376648, -0.030447937548160553, -0.047768451273441315, 0.11905962228775024, 0.058884650468826294, -0.11448141932487488, 0.04609991982579231, -0.22701804339885712
  , 0.012775499373674393, -0.008324749767780304, -0.09107811748981476, -0.07217538356781006, -0.10971789062023163, -0.04016290232539177, 0.06514822691679001, 0.04170776531100273, -0.024214673787355423, -0.11947561800479889, 0.0667024478316307, 0.03102079965174198
  , 0.11455278843641281, 0.07707007229328156, -0.0018060189904645085, 0.19502954185009003, 0.06958229839801788, -0.07720043510198593, -0.11688730120658875, 0.06282144039869308, 0.11080847680568695, -0.17501559853553772, 0.07704126834869385, 0.041065167635679245
  , -0.15070226788520813, 0.07498453557491302, -0.001152531709522009, 0.10620208084583282, 0.21626678109169006, 0.05823330581188202, -0.18770629167556763, 0.0793517529964447, -0.17174078524112701, 0.1455211192369461, 0.18025225400924683, -0.0717298686504364
  , -0.0037820173893123865, -0.0850580632686615, -0.16945889592170715, 0.15303438901901245, -0.15419520437717438, 0.08904746919870377, 0.21244195103645325, -0.11650224030017853, -0.0568634457886219, 0.12574228644371033, -0.006795468274503946, 0.12647439539432526
  , 0.13715001940727234, -0.137533500790596, 0.08695876598358154, 0.048999641090631485, -0.27065977454185486, 0.0814601480960846, -0.07282166182994843, -0.09125738590955734, -0.06800947338342667, -0.16142795979976654, -0.1415531188249588, -0.1544475108385086
  , 0.09097369015216827, 0.14488083124160767, -0.1700650453567505, -0.07648498564958572, -0.22492073476314545, -0.008834454230964184, -0.08607858419418335, 0.02117861807346344, 0.006824744399636984, 0.022623438388109207, -0.02540169470012188, 0.15803705155849457
  , -0.040640559047460556, 0.00015484292816836387, 0.0870513767004013, -0.022311551496386528, -0.16533182561397552, -0.05332448333501816, -0.17759695649147034, -0.14334648847579956, 0.21284762024879456, -0.043322253972291946, -0.012746690772473812, -0.15125727653503418
  , 0.2084040343761444, 0.020525218918919563, -0.01587815023958683, -0.045376770198345184, -0.33911189436912537, 0.146415576338768, 0.06056816875934601, -0.13007119297981262, -0.2866322994232178, -0.1339816153049469, -0.12855756282806396, 0.03641388192772865
  , -0.15098518133163452, -0.1579299420118332, 0.18776759505271912, -0.04640968143939972, 0.04899830371141434, 0.1412210762500763, -0.0778241902589798, 0.1205628365278244, -0.16922204196453094, -0.03246523067355156, -0.027842506766319275, 0.09515495598316193
  , -0.08221057802438736, -0.019169915467500687, 0.2422281801700592, 0.021934719756245613, 0.27128344774246216, 0.12708668410778046, 0.04045649245381355, -0.03385429456830025, -0.15992985665798187, 0.13650715351104736, 0.1760329157114029, 0.025737350806593895
  , -0.01400773599743843, 0.13037964701652527, -0.0344364196062088, -0.11962398886680603, 0.07838954031467438, -0.08522141724824905, 0.04746590927243233, -0.03231688216328621, 0.030800526961684227, 0.016683075577020645, -0.035093698650598526, -0.16559122502803802
  , 0.02650660276412964, 0.0155853983014822, 0.10421355813741684, 0.10821275413036346, 0.04358133673667908, 0.016040075570344925, -0.1794958859682083, 0.04949185624718666, -0.08026933670043945, -0.021690011024475098, 0.06866714358329773, -0.013845785520970821
  , -0.08735082298517227, -0.05133359879255295, 0.008333301171660423, -0.1016470417380333, -0.05168342962861061, 0.09143020957708359, 0.10541576892137527, -0.1224670261144638, 0.14701153337955475, -0.10416494309902191, 0.07616480439901352, -0.07472490519285202
  , 0.032226111739873886, 0.1459013670682907, -0.0920146182179451, -0.08155431598424911, -0.08960843831300735, 0.04925505071878433, 0.13731206953525543, 0.10949680209159851, -0.05245059356093407, -0.07779800146818161, -0.09467800706624985, -0.2196633666753769
  , -0.22156518697738647, -0.02542286552488804, -0.10168641060590744, -0.03769700974225998, 0.030939826741814613, 0.12910661101341248, 0.1659693717956543, -0.16594703495502472, 0.011613120324909687, -0.15269899368286133, 0.07843825966119766, -0.013990023173391819
  , 0.04418577998876572, 0.18856194615364075, 0.014599855989217758, -0.10861769318580627, -0.1257232278585434, -0.23380906879901886, 0.022935422137379646, -0.0033551445230841637, 0.09299475699663162, -0.05468793213367462, -0.09870121628046036, -0.20707707107067108
  , -0.09602343291044235, -0.08752907812595367, 0.04933041334152222, -0.02756153792142868, -0.02517968975007534, -0.12373636662960052, 0.07753381133079529, 0.06031716614961624, 0.06938391178846359, -0.004482227377593517, 0.23133324086666107, 0.13697774708271027
  , -0.012631487101316452, -0.007507077418267727, -0.05123849958181381, -0.08198263496160507, 0.07887797057628632, 0.09182848036289215, 0.007362623233348131, 0.00549559248611331, 0.06364693492650986, 0.15273265540599823, -0.11822456121444702, -0.032778237015008926
  , -0.04281961917877197, -0.05857555940747261, 0.08228076249361038, -0.020076438784599304, 0.008525059558451176, -0.06390240043401718, 0.020533451810479164, 0.04644288122653961, -0.12091604620218277, -0.04380333051085472, -0.04420807212591171, -0.08445927500724792
  , -0.06819062680006027, -0.0416393056511879, 0.15816351771354675, -0.008576933294534683, 0.1623939424753189, -0.09523305296897888, -0.08978277444839478, 0.04491225630044937, 0.15320096909999847, -0.02491593360900879, 0.23203422129154205, 0.0737207680940628
  , 0.2115878015756607, 0.1384551078081131, 0.008517103269696236, 0.1572059839963913, -0.031352341175079346, 0.027185620740056038, -0.0056585404090583324, 0.10145438462495804, -0.14548614621162415, -0.0031764174345880747, -0.2400294840335846, 0.04974711313843727
  , -0.17893069982528687, 0.10285982489585876, 0.02827157825231552, 0.06270479410886765, -0.11275431513786316, 0.0014065399300307035, -0.03727241978049278, -0.11796485632658005, -0.009118867106735706, 0.12382613122463226, -0.02668904699385166, 0.17454247176647186
  , 0.08314795047044754, -0.05065929889678955, -0.05054217949509621, -0.1394529491662979, 0.32009464502334595, 0.008108469657599926, -0.16232173144817352, 0.1693929135799408, 0.0680757686495781, 0.012574762105941772, -0.030199335888028145, 0.0010643580462783575
  , 0.09357241541147232, 0.09494829922914505, -0.017802095040678978, 0.15701819956302643, -0.050776511430740356, 0.08991964906454086, -0.0029411453288048506, 0.023072894662618637, -0.007865621708333492, 0.11312644928693771, 0.08129756897687912, 0.09340623021125793
  , -0.10070148855447769, -0.12856142222881317, -0.11055941134691238, -0.11652559787034988, 0.008772024884819984, -0.033383559435606, -0.1340554803609848, 0.181739941239357, -0.030088461935520172, 0.0836726725101471, 0.10715141147375107, 0.13733252882957458
  , -0.1179976835846901, 0.07329962402582169, -0.10339628905057907, -0.21465452015399933, 0.15073038637638092, 0.20105703175067902, -0.22921983897686005, -0.08920447528362274, 0.18568377196788788, -0.10904774814844131, -0.06665389239788055, -0.12957265973091125
  , -0.20834246277809143, -0.0641174241900444, -0.07441488653421402, -0.13670861721038818, -0.01140184048563242, -0.029566068202257156, 0.06778112798929214, -0.09069787710905075, 0.15965966880321503, 0.013923361897468567, 0.20710375905036926, 0.009954824112355709
  , -0.11179792135953903, -0.2225525975227356, -0.08856078237295151, -0.0417826808989048, 0.0960686206817627, 0.035053253173828125, 0.30036911368370056, 0.03076755814254284, -0.08283290266990662, 0.12137817591428757, 0.10595731437206268, 0.06538407504558563
  , -0.01785748265683651, -0.039697498083114624, -0.14960813522338867, -0.0562284030020237, -0.06188754737377167, 0.014680428430438042, 0.03137025982141495, -0.04987141489982605, -0.11700215935707092, 0.09292250871658325, 0.11241992563009262, -0.020352927967905998
  , -0.07186053693294525, -0.03866477310657501, 0.004871729761362076, -0.07354961335659027, -0.061779238283634186, 0.13185569643974304, -0.15143977105617523, 0.08261378109455109, -0.25954699516296387, -0.038809020072221756, -0.026574324816465378, 0.018675951287150383
  , -0.05402708798646927, 0.08005116879940033, 0.14080563187599182, -0.051515549421310425, -0.062080688774585724, 0.007751522585749626, 0.06217010319232941, 0.0997866690158844, -0.04283956065773964, 0.19647130370140076, 0.030769165605306625, 0.055299848318099976
  , 0.057093169540166855, -0.06590897589921951, -0.04166685789823532, 0.25788062810897827, -0.14237302541732788, -0.22217139601707458, -0.08396783471107483, -0.09454475343227386, -0.08900260925292969, 0.15391747653484344, 0.025210784748196602, 0.1807568371295929
  , -0.03148522228002548, -0.11782686412334442, -0.046708300709724426, 0.04212568327784538, -0.03616584092378616, 0.06406432390213013, -0.03393114358186722, 0.19000709056854248, 0.12249494343996048, -0.21343959867954254, 0.056718699634075165, -0.26562920212745667
  , 0.10264888405799866, 0.04810798540711403, 0.025432996451854706, 0.15911738574504852, -0.04767441749572754, -0.05227350443601608, 0.054883234202861786, 0.0542210154235363, 0.013783766888082027, 0.11484065651893616, 0.05259913206100464, -0.2186778336763382
  , -0.038645606487989426, -0.028401533141732216, 0.03607618063688278, 0.06493967026472092, -0.15872631967067719, -0.032954201102256775, 0.03546811267733574, -0.12880580127239227, -0.05137493461370468, -0.13540339469909668, 0.09549801051616669, 0.04882005974650383
  , -0.05534897744655609, -0.006597795058041811, -0.10139913856983185, -0.01225091703236103, 0.009561595506966114, -0.025075826793909073, -0.05035961791872978, -0.10687926411628723, -0.0722174346446991, 0.04789929836988449, -0.24763920903205872, 0.05899921804666519
  , -0.0170548427850008, -0.09483879804611206, 0.103142648935318, 0.0027188840322196484, -0.08227639645338058, -0.02105541154742241, -0.00439100805670023, 0.05932219699025154, -0.0040334793739020824, -0.0610225610435009, -0.10850866883993149, 0.03607623279094696
  , -0.018294915556907654, -0.030500927940011024, -0.15032383799552917, 0.08778158575296402, 0.11787640303373337, -0.1019398495554924, -0.1497696489095688, 0.06034260615706444, -0.08340620994567871, -0.008813380263745785, 0.05981091037392616, -0.14886325597763062
  , -0.11484993249177933, -0.14497226476669312, -0.018467746675014496, 0.09574536979198456, -0.21604961156845093, -0.01791819930076599, -0.09780918806791306, -0.09503606706857681, -0.016355087980628014, -0.05653228238224983, -0.018442969769239426, -0.07846061885356903
  , 0.01900942623615265, -0.009008011780679226, -0.060652438551187515, 0.13422325253486633, -0.062279440462589264, -0.0051116119138896465, -0.08803801983594894, 0.045279454439878464, 0.23787818849086761, 0.15250647068023682, -0.07446803897619247, 0.14973706007003784
  , 0.011511578224599361, 0.06508418172597885, 0.0060601672157645226, -0.13700103759765625, 0.028538957238197327, 0.038126472383737564, 0.027258312329649925, 0.19789323210716248, 0.08567025512456894, 0.03959771990776062, 0.059375960379838943, 0.01854298636317253
  , -0.10267403721809387, -0.06251896917819977, 0.04532939940690994, 0.20010808110237122, -0.07646209001541138, 0.025578569620847702, 0.032267943024635315, 0.07626621425151825, 0.07344365864992142, -0.1620602011680603, -0.007694631814956665, 0.057022642344236374
  , 0.03508373349905014, 0.01564323529601097, -0.010145040228962898, 0.0516669899225235, -0.11176738888025284, 0.022459013387560844, 0.051181476563215256, -0.047501128166913986, 0.013502155430614948, -0.06280025839805603, 0.11977774649858475, -0.021496515721082687
  , 0.015626534819602966, 0.013527081348001957, -0.16315048933029175, 0.2134782373905182, 0.02196781523525715, 0.07217652350664139, -0.03660111874341965, 0.1705390065908432, 0.18308256566524506, 0.09648293256759644, 0.240273579955101, 0.010509327054023743
  , 0.05395853519439697, 0.03668318688869476, -0.08113539218902588, -0.04425983130931854, -0.01654188334941864, -0.22953663766384125, 0.2068023532629013, 0.1289321333169937, 0.09631147235631943, -0.0616830438375473, -0.19697478413581848, 0.08780630677938461
  , 0.11093901097774506, -0.012332824990153313, 0.015067840926349163, -0.07338345050811768, -0.12923188507556915, -0.025289805606007576, -0.16140377521514893, -0.019796449691057205, 0.1091417670249939, 0.017738383263349533, 0.011144395917654037, 0.08356980979442596
  ]

mapping_block/b3 =
[0.07283811271190643, -0.28680136799812317, 0.08908044546842575, 0.09475136548280716, 0.014460071921348572, 0.06601589918136597, 0.06390245258808136, 0.0007773820543661714, -0.10229124128818512, 0.04067562520503998, -0.10782061517238617, -0.02516859769821167]

mapping_block/w4 =
[0.11219634115695953, 0.041553858667612076, -0.07235922664403915, 0.036911047995090485, 0.0633242204785347, 0.051875632256269455, 0.010346585884690285, 0.1520519256591797, -0.005610381718724966, 0.10956936329603195, 0.019526390358805656, -0.20567843317985535
  , 0.08089959621429443, 0.037226561456918716, -0.013798787258565426, 0.03037251904606819, -0.09614566713571548, 0.024741260334849358, -0.10029890388250351, -0.004363837651908398, -0.031846169382333755, 0.04529884457588196, 0.017232192680239677, 0.01953713782131672
  , -0.034130483865737915, 0.0969608873128891, -0.02534172497689724, 0.13125647604465485, -0.05173762887716293, -0.05818367004394531, -0.00984442513436079, -0.05424410477280617, -0.10471462458372116, 0.13124749064445496, -0.20252904295921326, -0.07722333818674088
  , 0.09123572707176208, -0.10998495668172836, -0.09483847767114639, 0.1617116928100586, -0.13696575164794922, 0.03872964158654213, -0.12526565790176392, 0.1785954087972641, 0.03470740094780922, 0.1007230207324028, -0.07020852714776993, -0.1787368208169937
  , -0.02260420471429825, -0.05745209380984306, -0.16727972030639648, -0.0392281748354435, -0.08201727271080017, -0.003804881824180484, 0.1143842563033104, -0.03695729002356529, -0.06514178961515427, -0.07197371125221252, 0.02860451117157936, 0.08703171461820602
  , -0.12750962376594543, 0.11441639810800552, -0.07447190582752228, -0.014805409125983715, -0.11501980572938919, 0.07222554832696915, -0.08452202379703522, -0.10236429423093796, -0.007244649343192577, -0.11459860950708389, 0.04206133633852005, 0.07812203466892242
  , -0.06826987862586975, -0.20973213016986847, -0.07084371149539948, 0.06660021841526031, 0.077480249106884, -0.05166421830654144, 0.06569857150316238, -0.06450971215963364, -0.08166851103305817, 0.0958317220211029, -0.00798006635159254, 0.1209990605711937
  , -0.06469599157571793, -0.26972144842147827, -0.11262239515781403, -0.009426901116967201, 0.03732572868466377, -0.04841778054833412, -0.10351388156414032, -0.0070083485916256905, -0.026678066700696945, -0.04279615730047226, -0.023721501231193542, 0.004623438231647015
  , -0.14015592634677887, -0.2017153650522232, 0.022028431296348572, 0.029546091333031654, 0.006235443986952305, 0.10214141756296158, -0.04206954687833786, -0.1357242614030838, -0.09872590005397797, -0.15697145462036133, 0.03436486795544624, -0.0368693545460701
  , 0.0649876594543457, -0.09670592099428177, -0.0055139376781880856, 0.00625767232850194, -0.23642069101333618, -0.08189672231674194, -0.07035388052463531, -0.017847169190645218, -0.11778885126113892, 0.0415668711066246, -0.03320448845624924, -0.049166250973939896
  , -0.13222579658031464, 0.0770018920302391, 0.037084341049194336, 0.05643449351191521, -0.13852469623088837, -0.13055087625980377, 0.10913305729627609, 0.12159835547208786, 0.22169803082942963, -0.06421082466840744, 0.00844863522797823, -0.07662314921617508
  , 0.1121758446097374, 0.051617711782455444, -0.05316593870520592, 0.13113999366760254, 0.0010821480536833405, 0.04433193802833557, 0.20101913809776306, 0.06133757531642914, -0.17200298607349396, 0.07486163824796677, -0.12800943851470947, 0.05650625750422478
  , 0.06727350503206253, 0.042088210582733154, -0.27073147892951965, 0.12932975590229034, -0.03622322157025337, -0.1836690902709961, -0.013825107365846634, -0.14176304638385773, 0.032386425882577896, -0.16840676963329315, 0.018851909786462784, -0.05521564558148384
  , -0.12167485058307648, -0.0444253534078598, 0.058755889534950256, 0.1547442525625229, -0.05686793476343155, 0.10721705853939056, -0.015256590209901333, 0.05875927954912186, -0.12988591194152832, 0.20364545285701752, 0.013768759556114674, -0.28319910168647766
  , 0.05088033527135849, 0.18145795166492462, -0.02657029964029789, 0.10743994265794754, 0.10911131650209427, 0.09709680080413818, -0.09114367514848709, -0.049609702080488205, 0.0740777924656868, -0.053626012057065964, -0.10959286987781525, -0.009962684474885464
  , -0.09086636453866959, -0.17679300904273987, -0.19319385290145874, 0.11366172134876251, 0.10593384504318237, -0.027652081102132797, 0.12098180502653122, -0.107897087931633, -0.18679417669773102, -0.12239798158407211, -0.050438057631254196, 0.011530213989317417
  , -0.09439300745725632, 0.029763907194137573, 0.23697011172771454, -0.06473394483327866, -0.04465808719396591, 0.016664383932948112, -0.09310922026634216, 0.0236000195145607, -0.09144046902656555, 0.15144284069538116, -0.05507634952664375, 0.1465766727924347
  , -0.01367246825248003, 0.08725050836801529, 0.1077122613787651, 0.07983729988336563, 0.0815567746758461, 0.08413089066743851, -0.23580752313137054, 0.07225702702999115, 0.10512130707502365, 0.01711455173790455, 0.09585319459438324, 0.12116381525993347
  , -0.0635373666882515, 0.03496943786740303, -0.13947263360023499, -0.04702985659241676, 0.1474238783121109, -0.146534264087677, -0.03734353929758072, -0.07468048483133316, 0.07790126651525497, -0.07706312835216522, -0.09440172463655472, -0.14802749454975128
  , 0.11267103999853134, -0.0015476871049031615, -0.058275312185287476, -0.1168169155716896, -0.08923929929733276, -0.04984895884990692, -0.08874526619911194, -0.02880636788904667, 0.025292349979281425, 0.028803497552871704, 0.12275763601064682, 0.08076829463243484
  , 0.09096509218215942, -0.08616018295288086, 0.05561797320842743, 0.03323950245976448, 0.22998426854610443, -0.09950606524944305, -0.05429822579026222, 0.2667052149772644, -0.07630367577075958, -0.1029030904173851, -0.049308422952890396, -0.09066948294639587
  , -0.06719670444726944, -0.14039859175682068, 0.10785999149084091, 0.01643144153058529, 0.018167218193411827, -0.033732522279024124, -0.07377239316701889, -0.02339588850736618, 0.18850630521774292, -0.15824773907661438, 0.0013868225505575538, -0.0840367004275322
  , -0.01587301306426525, -0.08351190388202667, -0.10502982884645462, -0.007703944109380245, -0.05223054811358452, 0.008765670470893383, 0.06494325399398804, 0.07603473216295242, -0.3264607787132263, 0.03780188784003258, 0.08407120406627655, 0.042070019990205765
  , 0.0061193592846393585, 0.06855060160160065, -0.08787800371646881, 0.04271678626537323, -0.05257953330874443, -0.052562415599823, 0.28574657440185547, -0.05533888190984726, -0.026234939694404602, -0.030162079259753227, 0.045536961406469345, -0.11576299369335175
  , -0.33362647891044617, -0.2096879482269287, 0.21434973180294037, 0.1129281148314476, -0.20475539565086365, -0.24410627782344818, -0.0779174417257309, -0.10594875365495682, -0.1425114870071411, 0.24930298328399658, 0.1349363774061203, 0.09981884807348251
  , 0.08087050914764404, -0.19297561049461365, -0.06375923752784729, 0.024455424398183823, 0.005629236809909344, 0.010450736619532108, 0.09325122833251953, -0.1912216693162918, 0.08058471977710724, 0.093189537525177, -0.03144145756959915, -0.04647781327366829
  , 0.13624250888824463, 0.0013452658895403147, -0.17160552740097046, -0.008895586244761944, 0.011835428886115551, -0.026370162144303322, 0.09939445555210114, 0.0007918304763734341, 0.016684478148818016, -0.18576805293560028, -0.1252681463956833, -0.02590716816484928
  , -0.01952691376209259, -0.016658199951052666, 0.06488794088363647, -0.0809505432844162, 0.08763905614614487, -0.0847133919596672, 0.148807093501091, -0.10422901809215546, 0.1299075186252594, 0.0036405050195753574, 0.0026102657429873943, 0.07387041300535202
  , 0.0706518366932869, 0.17571201920509338, -0.017804361879825592, 0.02212013490498066, -0.2399868369102478, -0.06424201279878616, 0.042741190642118454, -0.08163796365261078, 0.005745472852140665, -0.10092940926551819, 0.10176544636487961, -0.10322602838277817
  , -0.010084173642098904, 0.11687586456537247, -0.03917843848466873, -0.04816468805074692, -0.004244390409439802, 0.10696203261613846, -0.21361513435840607, 0.02610255405306816, -0.004020331427454948, -0.0034102341160178185, -0.09214042127132416, 0.015553586184978485
  , 0.06638988107442856, -0.026681404560804367, 0.08010970056056976, -0.017119470983743668, -0.1346147060394287, 0.08159980922937393, -0.02301042526960373, 0.09267201274633408, -0.04004037752747536, 0.0313640758395195, -0.00922852661460638, 0.07256636768579483
  , 0.02586265280842781, -0.035055600106716156, -0.08766093850135803, -0.07802512496709824, 0.04661106690764427, 0.07981845736503601, -0.07888630777597427, 0.08354160934686661, -0.04666835814714432, -0.11719942092895508, 0.03613484650850296, -0.03977499157190323
  , 0.04087495431303978, -0.09909871965646744, 0.15736261010169983, -0.06722128391265869, -0.19382034242153168, 0.03482385352253914, 0.013980522751808167, -0.06967294216156006, 0.1302894800901413, 0.11033998429775238, 0.10223838686943054, 0.1067594438791275
  , 0.10738073289394379, 0.03826674818992615, 0.05789432302117348, 0.004125399049371481, -0.04941010847687721, -0.06039498373866081, -0.1762600541114807, 0.06574717909097672, -0.11316093802452087, 0.02444634959101677, -0.06105224788188934, 0.04337790980935097
  , -0.08581539988517761, -0.09467295557260513, -0.1495009809732437, 0.034573089331388474, -0.012504005804657936, -0.13207563757896423, 0.03665107861161232, -0.06971128284931183, 0.03411049768328667, 0.07008099555969238, 0.19300402700901031, -0.18123368918895721
  , 0.11784347891807556, 0.14178484678268433, 0.05603379011154175, 0.07829014211893082, -0.1630488932132721, 0.07582589983940125, 0.034396637231111526, -0.09820456057786942, 0.1235811784863472, 0.08940509706735611, 0.022115811705589294, 0.05379462242126465
  , -0.11168769001960754, -0.07371409237384796, 0.01180750597268343, -0.131423681974411, 0.09591426700353622, 0.1488277167081833, 0.1706804484128952, -0.4503936469554901, 0.2435140162706375, -0.14088024199008942, -0.007632744498550892, -0.15818549692630768
  , 0.011601337231695652, -0.10157733410596848, 0.06018122285604477, -0.09631688892841339, -0.03595884144306183, 0.1148751974105835, -0.17334520816802979, 0.11736161261796951, 0.16780564188957214, -0.007460653316229582, -0.047817450016736984, -0.029302414506673813
  , -0.012806239537894726, 0.06464620679616928, -0.042457371950149536, 0.07700665295124054, -0.13679514825344086, -0.09192316234111786, -0.19083192944526672, 0.008843258023262024, -0.05787020921707153, -0.022503670305013657, 0.2254481166601181, 0.08315619826316833
  , -0.07026111334562302, 0.027716804295778275, 0.2173357754945755, -0.25617748498916626, -0.09170104563236237, -0.04953368753194809, 0.09756962954998016, -0.06055517494678497, 0.0482444167137146, -0.27762919664382935, 0.05968012660741806, -0.07229512184858322
  , 0.07323971390724182, 0.1779959350824356, 0.20037305355072021, -0.11441423743963242, -0.03433044254779816, 0.07949616760015488, 0.06566425412893295, 0.16776233911514282, -0.1151970848441124, 0.005261668935418129, -0.09098713845014572, 0.14913451671600342
  , -0.08073986321687698, -0.02752353996038437, -0.015197561122477055, 0.10152198374271393, 0.09100969135761261, -0.031621724367141724, 0.07862306386232376, -0.0019729763735085726, -0.2708215117454529, -0.0833754763007164, 0.06537231802940369, 0.06562361866235733
  , -0.09149056673049927, 0.08442474901676178, 0.20031394064426422, -0.21851958334445953, 0.031098641455173492, 0.022549321874976158, 0.19103603065013885, -0.15695910155773163, 0.03861000016331673, -0.159477099776268, 0.06918669492006302, -0.04902159422636032
  , 0.011326913721859455, 0.1850857138633728, 0.07435642182826996, 0.1038934662938118, 0.11935539543628693, -0.07836195081472397, 0.0834665521979332, 0.05353083088994026, -0.23316191136837006, 0.09664086252450943, -0.07459861785173416, -0.02572476491332054
  , 0.09967759251594543, -0.0020940257236361504, -0.09719035774469376, 0.07074274867773056, 0.008561099879443645, -0.180423304438591, 0.11917596310377121, -0.0839059129357338, 0.13849157094955444, 0.18167008459568024, 0.017772702500224113, 0.018504861742258072
  , -0.010867693461477757, -0.194400817155838, -0.09667746722698212, -0.05700192227959633, 0.0493299774825573, -0.12649640440940857, -0.19013264775276184, -0.05311106517910957, -0.1753753423690796, 0.047187890857458115, 0.05084405839443207, 0.10486049950122833
  , 0.01985720731317997, -0.04536237195134163, -0.29433947801589966, -0.036119114607572556, -0.13445152342319489, 0.025573281571269035, -0.04382160305976868, -0.1256006509065628, -0.027640940621495247, -0.030889084562659264, -0.08941185474395752, -0.11053061485290527
  , 0.011302434839308262, 0.1333097368478775, 0.009714454412460327, -0.05254208669066429, 0.2913568913936615, -0.016999870538711548, -0.13782189786434174, -0.06759823858737946, 0.054404787719249725, -0.02396252192556858, -0.00225791335105896, -0.10158021003007889
  , -0.0007795941783115268, 0.19934982061386108, 0.14366599917411804, -0.15127824246883392, 0.05725733935832977, -0.3520947992801666, 0.10533913224935532, -0.09122062474489212, 0.16442368924617767, -0.22423973679542542, 0.04663101211190224, 0.10210900008678436
  , -0.06481417268514633, -0.20007507503032684, -0.01129118911921978, -0.009490113705396652, 0.03197304531931877, -0.16728368401527405, -0.0974700078368187, -0.2656420171260834, -0.13970550894737244, -0.2097114771604538, 0.09456384181976318, 0.0734066292643547
  , -0.11279164254665375, -0.20429842174053192, -0.12262503802776337, -0.10931330919265747, -0.12311519682407379, -0.10717363655567169, -0.16696932911872864, 0.02106371521949768, 0.0843205451965332, -0.10819550603628159, -0.03795012831687927, -0.1349944919347763
  , 0.17367282509803772, 0.15902915596961975, -0.049614593386650085, -0.24559038877487183, 0.18356704711914062, -0.020822038874030113, -0.19041071832180023, 0.17279580235481262, -0.24017558991909027, 0.01943076029419899, -0.12378183007240295, 0.13997913897037506
  , -0.17342805862426758, -0.03897356986999512, -0.21099665760993958, 0.14231716096401215, 0.15180844068527222, 0.019579172134399414, -0.25115540623664856, -0.16893446445465088, 0.006395301781594753, 0.07562961429357529, 0.28991156816482544, -0.1272205114364624
  , -0.1360989511013031, 0.06518863141536713, -0.07646529376506805, 0.0331052727997303, -0.1960778534412384, 0.042580969631671906, -0.06747535616159439, 0.06931415945291519, 0.21559882164001465, 0.09105329215526581, 0.049171846359968185, -0.11731134355068207
  , -0.004650745540857315, 0.24297308921813965, 0.029924150556325912, -0.3314320743083954, -0.05612622946500778, -0.12172824889421463, -0.0014354632003232837, 0.19755688309669495, -0.01612604781985283, 0.014007138088345528, -0.20330305397510529, 0.3724985420703888
  , -0.1894485056400299, -0.08800513297319412, 0.21921837329864502, 0.054460808634757996, -0.08984183520078659, 0.23171104490756989, 0.0598810650408268, -0.3300713002681732, 0.15722395479679108, -0.21219438314437866, 0.051960453391075134, 0.1442001909017563
  , 0.04531487450003624, 0.25553789734840393, 0.019102323800325394, 0.0844314694404602, 0.10774560272693634, -0.19554829597473145, -0.13209225237369537, 0.16661834716796875, 0.1427086889743805, 0.018185485154390335, -0.12159088253974915, -0.19298425316810608
  , -0.08592407405376434, -0.1723669469356537, -0.45981350541114807, 0.050317466259002686, -0.059459224343299866, -0.17619654536247253, 0.10675034672021866, 0.17476509511470795, 0.12403803318738937, -0.12573590874671936, 0.23426762223243713, -0.12288474291563034
  , -0.14314401149749756, 0.052827659994363785, -0.11701645702123642, 0.09159030765295029, -0.10976405441761017, -0.08917777240276337, -0.1691099852323532, 0.07537762820720673, -0.15944181382656097, 0.0873214602470398, 0.08355993032455444, -0.03975671902298927
  , -0.08781392127275467, 0.18671518564224243, -0.09728529304265976, -0.10694234818220139, 0.10193519294261932, -0.0946815088391304, -0.011601378209888935, 0.10610690712928772, 0.05033394694328308, 0.06334851682186127, -0.22384221851825714, 0.042018793523311615
  , -0.149791419506073, 0.02081378735601902, -0.1248185858130455, 0.11217159032821655, 0.016773415729403496, 0.14736030995845795, -0.13771915435791016, -0.23384998738765717, 0.0027374927885830402, 0.053786005824804306, -0.14086607098579407, -0.1905829906463623
  , -0.0793374627828598, -0.20635922253131866, 0.035459004342556, 0.007793257012963295, 0.05371672287583351, 0.11086960136890411, 0.04555476829409599, 0.19471515715122223, 0.20320488512516022, -0.09153582900762558, 0.04478378966450691, 0.2355939745903015
  , -0.00617552176117897, 0.04334089159965515, -0.09473106265068054, -0.0807710811495781, 0.13580743968486786, 0.049679771065711975, -0.0020751713309437037, 0.06309522688388824, 0.05472433194518089, -0.08491542935371399, -0.060220833867788315, 0.0018359378445893526
  , -0.16115963459014893, -0.016033563762903214, -0.17412951588630676, 0.04024706780910492, -0.005180139094591141, 0.18915210664272308, 0.07188031822443008, -0.030652925372123718, 0.05216003581881523, -0.029726101085543633, -0.026984523981809616, 0.0022284809965640306
  , 0.10758713632822037, 0.10820864140987396, 0.012867267243564129, 0.062432680279016495, -0.04975622147321701, -0.07173877209424973, -0.12819960713386536, -0.06750073283910751, -0.028141045942902565, -0.00441788462921977, -0.06791551411151886, -0.06729906797409058
  , -0.0981115996837616, 0.08231505006551743, -0.21992629766464233, 0.09824619442224503, 0.028461700305342674, -0.015702903270721436, -0.1244887039065361, -0.16020719707012177, 0.16159804165363312, -0.24424153566360474, -0.0033388377632945776, 0.02392074465751648
  , 0.05204285308718681, 0.05009627342224121, -0.08772297948598862, 0.06006075069308281, -0.12777867913246155, 0.04763336107134819, 0.06301090121269226, -0.07933098077774048, 0.06829507648944855, -0.005845492240041494, 0.027419498190283775, -0.10022363811731339
  , 0.17757146060466766, -0.028197553008794785, 0.22721998393535614, -0.14094218611717224, 0.11032187193632126, 0.03845309838652611, -0.09054070711135864, 0.17058095335960388, -0.025263823568820953, 0.0002641062019392848, -0.031532593071460724, -0.001815540250390768
  , 0.053451843559741974, 0.12052448838949203, 0.10716739296913147, -0.1060667410492897, -0.23851822316646576, 0.1502774953842163, 0.068918876349926, -0.1729942113161087, -0.018522774800658226, -0.04447929188609123, -0.026263706386089325, -0.09677018225193024
  , -0.03311879187822342, -0.060933034867048264, -0.00015417966642417014, -0.08179198950529099, -0.17525486648082733, -0.13041630387306213, -0.06320808827877045, -0.07464305311441422, -0.14234448969364166, 0.018953116610646248, 0.004905894864350557, -0.024891821667551994
  , 0.123685322701931, 0.14501765370368958, -0.1069352924823761, -0.03348015248775482, -0.056664127856492996, 0.06500357389450073, -0.3068796694278717, 0.2255135178565979, -0.03640546277165413, 0.0185561440885067, 0.020606448873877525, 0.17683619260787964
  , -0.23889943957328796, 0.13148342072963715, 0.05198244750499725, -0.13226039707660675, 0.1617770791053772, -0.10657559335231781, 0.06810033321380615, 0.1173950657248497, 0.04206940904259682, 0.024730511009693146, -0.03350786119699478, -0.03389725461602211
  , -0.3161875307559967, -0.06975477933883667, -0.02959640696644783, -0.008715956471860409, 0.059978555887937546, 0.06954130530357361, 0.012183869257569313, -0.27238380908966064, 0.1296323984861374, -0.028184030205011368, -0.004427612759172916, -0.001020857598632574
  , 0.012433028779923916, -0.044636745005846024, 0.030597692355513573, 0.07821622490882874, 0.0971447229385376, -0.021146005019545555, 0.12396478652954102, 0.01867939718067646, -0.047369398176670074, 0.11919102817773819, 0.0023219077847898006, 0.12178666144609451
  , 0.011805311776697636, 0.03713178262114525, 0.0810767188668251, 0.0029624158050864935, -0.09749283641576767, -0.1352514773607254, -0.054526738822460175, 0.11604364961385727, 0.07299111038446426, 0.05294550210237503, -0.0461467020213604, 0.11364960670471191
  , -0.16549575328826904, 0.006288402713835239, -0.13800594210624695, -0.015801403671503067, 0.03658541664481163, -0.013340502977371216, 0.08564019948244095, 0.1352672427892685, 0.03398781269788742, -0.11807038635015488, 0.11143846064805984, 0.04554959759116173
  , -0.008847648277878761, -0.004866312723606825, 0.029707541689276695, 0.07672125101089478, -0.007548315450549126, -0.07168982923030853, 0.06039579585194588, 0.15611977875232697, -0.04145129397511482, 0.007084967568516731, 0.15235811471939087, -0.07623834908008575
  , -0.026931606233119965, 0.013319890946149826, 0.07013886421918869, 0.07121336460113525, -0.016951166093349457, 0.11573725193738937, 0.14137999713420868, -0.14702782034873962, -0.0050817509181797504, 0.03513750433921814, -0.07970117777585983, -0.05162322521209717
  , -0.02839895524084568, -0.2147143930196762, -0.13750779628753662, 0.12688076496124268, -0.018805978819727898, 0.031248657032847404, -0.07112327963113785, -0.194786936044693, -0.17501407861709595, 0.006445751991122961, 0.016282979398965836, -0.09850631654262543
  , -0.015773123130202293, 0.04337378963828087, 0.010148582980036736, 0.08777894079685211, 0.05794452875852585, -0.06310339272022247, -0.041543155908584595, -0.04361856356263161, 0.13390524685382843, 0.10538476705551147, 0.1771479994058609, -0.1317450851202011
  , -0.050246462225914, 0.12374019622802734, 0.04545975476503372, -0.10066336393356323, -0.14682699739933014, 0.02029242180287838, 0.16753563284873962, 0.11570541560649872, 0.10165929049253464, 0.008265425451099873, -0.037401583045721054, 0.05096759274601936
  , -0.04771218076348305, 0.02547939121723175, 0.0010923362569883466, 0.004127355758100748, -0.09785301238298416, -0.0202565249055624, 0.10223807394504547, 0.10059432685375214, 0.04617243632674217, 0.20395256578922272, -0.04330376908183098, -0.18751893937587738
  , -0.007333142217248678, -0.22328196465969086, 0.0957537367939949, 0.028944171965122223, -0.0037904134951531887, 0.03123161382973194, -0.07107219845056534, 0.012296921573579311, -0.0036879272665828466, 0.05363006144762039, -0.14427272975444794, -0.08857265114784241
  , -0.012256050482392311, 0.02941209077835083, 0.014610417187213898, 0.11862058192491531, 0.060857728123664856, 0.006935624405741692, 0.04390636086463928, 0.030476076528429985, 0.013378931209445, 0.1789792776107788, -0.05706288665533066, 0.028705602511763573
  , -0.06349553167819977, 0.060648515820503235, -0.05916053056716919, -0.010585361160337925, 0.02055973745882511, -0.3124643862247467, -0.08633103966712952, 0.19446808099746704, -0.014544576406478882, -0.20039048790931702, 0.10322114825248718, 0.127662792801857
  , 0.033623356372117996, -0.1555757373571396, 0.050487320870161057, -0.13849256932735443, 0.06809225678443909, -0.0478287898004055, -0.058689866214990616, -0.24134156107902527, -0.18353989720344543, 0.0514555424451828, 0.07405033707618713, -0.1324242502450943
  , -0.021277641877532005, 0.12146332114934921, -0.03167370706796646, -0.1505887359380722, 0.11548412591218948, 0.15687209367752075, 0.088221974670887, 0.012884995900094509, -0.1664121001958847, -0.00962711963802576, -0.13504424691200256, 0.040663428604602814
  , 0.09143517911434174, -0.0215147677809, 0.09234150499105453, -0.02438526414334774, 0.100639209151268, 0.043709538877010345, -0.15780487656593323, 0.028256315737962723, -0.1727243959903717, 0.2145584374666214, 0.10784127563238144, -0.032430849969387054
  , 0.0766238272190094, 0.011599158868193626, -0.09446760267019272, -0.12222526967525482, -0.1355181783437729, 0.008638239465653896, -0.12453442811965942, 0.18067042529582977, 0.08242402970790863, -0.15167932212352753, -0.016870878636837006, 0.12708406150341034
  , -0.13202880322933197, 0.0011748551623895764, 0.060042835772037506, 0.17319488525390625, -0.1948453187942505, 0.10077764093875885, -0.05807296931743622, -0.2193223387002945, 0.0782361626625061, 0.09778781980276108, 0.18354904651641846, 0.07757288962602615
  , 0.003789403708651662, -0.08789622038602829, 0.12971167266368866, 0.039936572313308716, -0.23239095509052277, -0.14193513989448547, -0.05639278143644333, 0.02174154855310917, 0.16257385909557343, 0.05540740117430687, 0.30170610547065735, -0.04763539135456085
